{"learner":{"attributes":{"scikit_learn":"{\"_estimator_type\": \"regressor\"}"},"feature_names":["temperature_2m_mean","precipitation_sum","wind_speed_10m_max","wind_direction_10m_dominant"],"feature_types":["float","float","float","float"],"gradient_booster":{"model":{"gbtree_model_param":{"num_parallel_tree":"1","num_trees":"100"},"iteration_indptr":[0,1,2,3,4,5,6,7,8,9,10,11,12,13,14,15,16,17,18,19,20,21,22,23,24,25,26,27,28,29,30,31,32,33,34,35,36,37,38,39,40,41,42,43,44,45,46,47,48,49,50,51,52,53,54,55,56,57,58,59,60,61,62,63,64,65,66,67,68,69,70,71,72,73,74,75,76,77,78,79,80,81,82,83,84,85,86,87,88,89,90,91,92,93,94,95,96,97,98,99,100],"tree_info":[0,0,0,0,0,0,0,0,0,0,0,0,0,0,0,0,0,0,0,0,0,0,0,0,0,0,0,0,0,0,0,0,0,0,0,0,0,0,0,0,0,0,0,0,0,0,0,0,0,0,0,0,0,0,0,0,0,0,0,0,0,0,0,0,0,0,0,0,0,0,0,0,0,0,0,0,0,0,0,0,0,0,0,0,0,0,0,0,0,0,0,0,0,0,0,0,0,0,0,0],"trees":[{"base_weights":[-1.6885525E-6,1.0178816E1,-1.2455787E1,3.2180173E0,1.9462452E1,-6.8183737E0,-2.4087711E1,1.3619557E1,-1.9053571E0,2.533544E1,9.093381E-1,-1.2673769E1,3.7251139E0,-3.1043745E1,-1.530401E1,1.5199589E1,-4.8367763E0,3.0881507E0,-1.1002008E1,9.109065E0,2.8444202E1,1.1904649E1,-6.8963165E0,-1.122467E0,-1.5265178E1,1.265233E1,5.4100417E-3,-1.47827215E1,-3.5954453E1,-1.3147701E1,-4.5040104E1,3.084248E1,1.2155675E1,-1.3875109E1,2.5053242E1,7.582541E0,-1.15001135E1,-1.5917201E1,-7.276997E-1,-4.8316884E0,1.412407E1,3.40707E1,1.8331656E1,1.682522E1,-2.4942957E1,-1.4000113E1,2.917535E0,1.2841865E1,-7.493899E0,-1.7547407E1,-8.658618E0,1.4775732E1,-1.00858135E1,7.89896E0,-5.1613264E0,-2.3787766E1,-1.8867763E0,-2.9319088E1,-4.0775723E1,-6.793541E0,-1.8987669E1,-3.5900176E0,-1.4215587E1,-5.85026E-1,1.0164816E1,4.086898E0,-1.7613657E0,-5.1363955E0,-1.6833624E0,1.2159984E1,3.314974E0,1.3139974E1,2.08655E0,-4.5060344E0,7.6028275E0,-3.5841901E0,-6.7967787E0,-1.2098379E0,6.1299696E0,2.864974E0,-2.4375327E0,5.6878614E0,-2.8893063E-3,1.0906703E1,6.3194113E0,-1.1123397E0,6.1930695E0,1.3815973E1,3.9847488E0,-8.483362E0,-7.4001735E-1,-1.5945163E0,-8.164477E0,1.5193415E0,-6.28669E0,1.1829969E1,4.689671E-1,-2.8898454E0,2.931399E0,-4.032793E0,-6.1134915E0,-6.2139755E-1,-4.131307E0,5.9347486E0,1.3691336E0,2.9133103E0,-5.984028E0,3.5863154E0,-5.532031E0,-6.735898E-1,-5.2238426E0,-2.64003E0,-8.295272E0,4.367969E0,-5.0000315E0,-1.093056E1,-5.584319E0,-6.54892E0,-1.2758683E1,1.0837758E0,-6.3407006E0,-5.9679794E0,2.8133104E0],"categories":[],"categories_nodes":[],"categories_segments":[],"categories_sizes":[],"default_left":[0,0,0,0,0,0,0,0,0,0,0,0,0,0,0,0,0,0,0,0,0,0,0,0,0,0,0,0,0,0,0,0,0,0,0,0,0,0,0,0,0,0,0,0,0,0,0,0,0,0,0,0,0,0,0,0,0,0,0,0,0,0,0,0,0,0,0,0,0,0,0,0,0,0,0,0,0,0,0,0,0,0,0,0,0,0,0,0,0,0,0,0,0,0,0,0,0,0,0,0,0,0,0,0,0,0,0,0,0,0,0,0,0,0,0,0,0,0,0,0,0,0,0],"id":0,"left_children":[1,3,5,7,9,11,13,15,17,19,21,23,25,27,29,31,33,35,37,39,41,43,45,47,49,51,53,55,57,59,61,63,65,67,69,71,73,75,77,79,81,83,85,87,89,91,93,95,97,99,101,103,105,107,109,111,113,115,117,119,121,-1,-1,-1,-1,-1,-1,-1,-1,-1,-1,-1,-1,-1,-1,-1,-1,-1,-1,-1,-1,-1,-1,-1,-1,-1,-1,-1,-1,-1,-1,-1,-1,-1,-1,-1,-1,-1,-1,-1,-1,-1,-1,-1,-1,-1,-1,-1,-1,-1,-1,-1,-1,-1,-1,-1,-1,-1,-1,-1,-1,-1,-1],"loss_changes":[2.97438E5,8.3363766E4,6.90163E4,3.9407992E4,6.0233062E4,4.400345E4,2.0543188E4,7.1889414E3,2.256438E4,2.0927375E4,1.1582728E4,1.3692703E4,8.467615E3,1.4720453E4,9.28234E3,1.0338602E4,5.7507344E3,2.1133678E4,8.876453E3,4.8922354E3,1.9403594E4,1.0573103E4,5.5483784E3,7.6589224E3,5.4871094E3,3.7701895E3,7.4226543E3,5.2970312E3,3.4751562E3,5.2516816E3,2.0858398E2,3.6551719E3,5.105701E3,3.3315015E2,6.359707E2,5.2849414E3,1.0236855E4,2.9128164E3,4.1388564E3,9.775226E2,3.4856777E3,5.920797E3,6.598551E3,4.5656396E3,4.5494092E2,5.134837E3,1.8487711E3,8.0360483E3,2.272932E3,2.9448438E3,3.2718125E3,3.4376074E3,1.5602131E3,7.911197E3,3.8907246E3,1.3199551E3,5.1043013E3,4.273207E3,1.7953594E3,1.067282E4,2.1131191E3,0E0,0E0,0E0,0E0,0E0,0E0,0E0,0E0,0E0,0E0,0E0,0E0,0E0,0E0,0E0,0E0,0E0,0E0,0E0,0E0,0E0,0E0,0E0,0E0,0E0,0E0,0E0,0E0,0E0,0E0,0E0,0E0,0E0,0E0,0E0,0E0,0E0,0E0,0E0,0E0,0E0,0E0,0E0,0E0,0E0,0E0,0E0,0E0,0E0,0E0,0E0,0E0,0E0,0E0,0E0,0E0,0E0,0E0,0E0,0E0,0E0,0E0],"parents":[2147483647,0,0,1,1,2,2,3,3,4,4,5,5,6,6,7,7,8,8,9,9,10,10,11,11,12,12,13,13,14,14,15,15,16,16,17,17,18,18,19,19,20,20,21,21,22,22,23,23,24,24,25,25,26,26,27,27,28,28,29,29,30,30,31,31,32,32,33,33,34,34,35,35,36,36,37,37,38,38,39,39,40,40,41,41,42,42,43,43,44,44,45,45,46,46,47,47,48,48,49,49,50,50,51,51,52,52,53,53,54,54,55,55,56,56,57,57,58,58,59,59,60,60],"right_children":[2,4,6,8,10,12,14,16,18,20,22,24,26,28,30,32,34,36,38,40,42,44,46,48,50,52,54,56,58,60,62,64,66,68,70,72,74,76,78,80,82,84,86,88,90,92,94,96,98,100,102,104,106,108,110,112,114,116,118,120,122,-1,-1,-1,-1,-1,-1,-1,-1,-1,-1,-1,-1,-1,-1,-1,-1,-1,-1,-1,-1,-1,-1,-1,-1,-1,-1,-1,-1,-1,-1,-1,-1,-1,-1,-1,-1,-1,-1,-1,-1,-1,-1,-1,-1,-1,-1,-1,-1,-1,-1,-1,-1,-1,-1,-1,-1,-1,-1,-1,-1,-1,-1],"split_conditions":[1.8373667E1,1.5843187E2,1.9914217E1,1.484318E1,9.0000004E-1,1.6031323E2,1.6386871E2,3.9999998E0,1.4140334E1,2.542417E0,1.858451E1,1.2979984E1,1.4512064E1,2.1290335E1,3.290014E1,2.3467318E1,7.7126976E1,4.8999996E0,9.367241E1,-1.1200833E0,1.0894501E1,3.5404422E2,1.23945E1,7.325417E1,1.2719108E2,3.4243958E2,2.4827837E1,7.128543E1,2.5796583E1,1.0000001E0,2.0809084E1,4.5195007E0,1.4201003E2,8.500001E0,9.648667E0,1.1934711E0,1.2454839E2,2.0304129E1,1.1299999E1,1.3679999E1,3.364854E2,2.4458813E1,1.2620554E1,1.6845686E2,1.3919499E1,6.5E0,3.290014E1,2.0532001E1,1.2620554E1,1.6171976E1,2.475075E1,2.8304918E1,3E-1,1.1299999E1,1.8775301E1,2.141319E1,1E-1,7.7126976E1,3.055939E1,2.72695E1,3.0694504E1,-3.5900176E0,-1.4215587E1,-5.85026E-1,1.0164816E1,4.086898E0,-1.7613657E0,-5.1363955E0,-1.6833624E0,1.2159984E1,3.314974E0,1.3139974E1,2.08655E0,-4.5060344E0,7.6028275E0,-3.5841901E0,-6.7967787E0,-1.2098379E0,6.1299696E0,2.864974E0,-2.4375327E0,5.6878614E0,-2.8893063E-3,1.0906703E1,6.3194113E0,-1.1123397E0,6.1930695E0,1.3815973E1,3.9847488E0,-8.483362E0,-7.4001735E-1,-1.5945163E0,-8.164477E0,1.5193415E0,-6.28669E0,1.1829969E1,4.689671E-1,-2.8898454E0,2.931399E0,-4.032793E0,-6.1134915E0,-6.2139755E-1,-4.131307E0,5.9347486E0,1.3691336E0,2.9133103E0,-5.984028E0,3.5863154E0,-5.532031E0,-6.735898E-1,-5.2238426E0,-2.64003E0,-8.295272E0,4.367969E0,-5.0000315E0,-1.093056E1,-5.584319E0,-6.54892E0,-1.2758683E1,1.0837758E0,-6.3407006E0,-5.9679794E0,2.8133104E0],"split_indices":[0,3,2,2,1,3,3,1,0,0,2,2,2,0,2,3,3,1,3,0,0,3,0,3,3,3,0,3,0,1,0,0,3,1,0,3,3,2,1,2,3,2,2,3,0,1,2,0,2,2,0,0,1,1,2,2,1,3,3,0,0,0,0,0,0,0,0,0,0,0,0,0,0,0,0,0,0,0,0,0,0,0,0,0,0,0,0,0,0,0,0,0,0,0,0,0,0,0,0,0,0,0,0,0,0,0,0,0,0,0,0,0,0,0,0,0,0,0,0,0,0,0,0],"split_type":[0,0,0,0,0,0,0,0,0,0,0,0,0,0,0,0,0,0,0,0,0,0,0,0,0,0,0,0,0,0,0,0,0,0,0,0,0,0,0,0,0,0,0,0,0,0,0,0,0,0,0,0,0,0,0,0,0,0,0,0,0,0,0,0,0,0,0,0,0,0,0,0,0,0,0,0,0,0,0,0,0,0,0,0,0,0,0,0,0,0,0,0,0,0,0,0,0,0,0,0,0,0,0,0,0,0,0,0,0,0,0,0,0,0,0,0,0,0,0,0,0,0,0],"sum_hessian":[2.344E3,1.29E3,1.054E3,7.38E2,5.52E2,7.11E2,3.43E2,2.43E2,4.95E2,4.19E2,1.33E2,4.57E2,2.54E2,1.9E2,1.53E2,2.24E2,1.9E1,3.2E2,1.75E2,6.8E1,3.51E2,5.5E1,7.8E1,8.4E1,3.73E2,7.4E1,1.8E2,4.5E1,1.45E2,1.44E2,9E0,3.5E1,1.89E2,1.5E1,4E0,2.45E2,7.5E1,1.18E2,5.7E1,1.8E1,5E1,2.24E2,1.27E2,4.9E1,6E0,4.5E1,3.3E1,2.6E1,5.8E1,2.76E2,9.7E1,6.8E1,6E0,7.1E1,1.09E2,2.6E1,1.9E1,6.4E1,8.1E1,7E1,7.4E1,1E0,8E0,3E0,3.2E1,1.75E2,1.4E1,1E1,5E0,1E0,3E0,3E0,2.42E2,6.9E1,6E0,7.6E1,4.2E1,5E1,7E0,3E0,1.5E1,3.7E1,1.3E1,1.89E2,3.5E1,1.2E1,1.15E2,4E0,4.5E1,5E0,1E0,2.8E1,1.7E1,3.1E1,2E0,7E0,1.9E1,5.2E1,6E0,1.15E2,1.61E2,4.3E1,5.4E1,4.5E1,2.3E1,2E0,4E0,6.2E1,9E0,8.9E1,2E1,6E0,2E1,9E0,1E1,3.7E1,2.7E1,8E0,7.3E1,4.1E1,2.9E1,7.2E1,2E0],"tree_param":{"num_deleted":"0","num_feature":"4","num_nodes":"123","size_leaf_vector":"1"}},{"base_weights":[-1.018505E-2,1.0437898E1,-6.067955E0,1.5212484E1,-1.6978935E0,-9.594063E0,1.3805484E0,1.0610925E1,1.9662533E1,1.4908653E0,-1.3794391E1,-2.9322355E0,-1.3603444E1,5.29137E0,-1.0074729E1,1.5901288E1,5.872131E0,3.7342956E0,2.2533556E1,-9.314974E0,4.1827683E0,1.0962271E1,-1.5531914E1,2.7917907E0,-7.936888E0,-1.0245061E1,-2.0549852E1,1.5026702E1,1.6529843E0,-6.264392E0,-2.7109697E1,2.3857883E1,1.141525E1,3.9100053E0,2.4971104E1,-3.3596866E0,7.961759E0,3.1355558E1,1.8617998E1,1.5239365E0,-1.5445721E1,5.55248E0,-1.6370277E1,-1.6594753E1,5.482082E0,1.6324427E1,4.7388005E-1,-9.589241E0,6.093344E0,-1.4602562E1,-6.250339E0,-1.5375695E1,-2.9244392E1,-9.630126E0,1.8620962E1,9.1720366E-1,2.4807396E1,7.9695225E0,-1.1051462E1,-3.0258408E-1,-2.8304577E1,4.9307404E0,1.3286674E1,3.9442701E0,-4.8549995E0,2.585323E0,-2.1484818E0,1.1270029E1,-5.5051807E-2,2.9403155E0,-1.6453624E0,3.951055E0,-8.11618E-1,-5.5260224E0,9.665639E0,5.903204E0,-7.23225E-3,-2.2346592E0,8.418406E0,-2.1344604E-2,-5.511247E0,4.8928022E-1,3.9382987E0,-2.3459703E-1,-6.881778E0,-3.014206E0,-7.252051E0,-5.1063223E0,6.424166E0,-1.0435069E0,3.757839E0,-4.5273763E-1,-3.5347068E0,1.23296795E1,7.407959E-1,-3.1414843E0,-6.2469E0,-6.1331105E-1,-3.8927042E0,-4.913034E0,-2.9113771E-2,-8.906534E0,5.4232067E-1,-5.180437E0,3.5617197E0,6.89455E0,3.3361983E-1,1.216461E0,-2.0309258E0,9.789628E0,-4.4948206E0,-1.4888383E0,5.822655E0,-2.6141763E0,-8.949399E0,-5.7452135E0,-9.739378E0],"categories":[],"categories_nodes":[],"categories_segments":[],"categories_sizes":[],"default_left":[0,0,0,0,0,0,0,0,0,0,0,0,0,0,0,0,0,0,0,0,0,0,0,0,0,0,0,0,0,0,0,0,0,0,0,0,0,0,0,0,0,0,0,0,0,0,0,0,0,0,0,0,0,0,0,0,0,0,0,0,0,0,0,0,0,0,0,0,0,0,0,0,0,0,0,0,0,0,0,0,0,0,0,0,0,0,0,0,0,0,0,0,0,0,0,0,0,0,0,0,0,0,0,0,0,0,0,0,0,0,0,0,0,0,0,0,0],"id":1,"left_children":[1,3,5,7,9,11,13,15,17,19,21,23,25,27,29,31,33,35,37,39,41,-1,43,45,47,49,51,53,55,57,59,61,63,65,67,69,71,73,75,77,79,81,83,85,-1,87,89,91,93,95,97,99,101,103,105,107,109,111,113,-1,115,-1,-1,-1,-1,-1,-1,-1,-1,-1,-1,-1,-1,-1,-1,-1,-1,-1,-1,-1,-1,-1,-1,-1,-1,-1,-1,-1,-1,-1,-1,-1,-1,-1,-1,-1,-1,-1,-1,-1,-1,-1,-1,-1,-1,-1,-1,-1,-1,-1,-1,-1,-1,-1,-1,-1,-1],"loss_changes":[1.4848325E5,4.9915094E4,3.901562E4,1.244625E4,9.432332E3,2.6883594E4,2.146749E4,7.5780273E3,1.422943E4,5.6820864E3,5.0279473E3,1.0907927E4,1.4463211E4,1.262042E4,7.7490684E3,4.8675312E3,6.01072E3,1.4962368E3,8.570156E3,2.6151123E3,4.4825693E3,0E0,2.0997393E3,5.5756685E3,4.7645586E3,7.3241133E3,8.7276875E3,8.775756E3,4.4237905E3,6.97009E3,6.575791E2,7.005756E3,4.7068643E3,7.827931E3,4.7594756E3,5.8508264E2,1.7579613E3,4.0309297E3,3.6736836E3,3.7807488E3,1.1229976E3,4.3454346E3,1.0060532E3,2.1885537E3,0E0,4.7769634E3,7.331471E3,3.207371E3,2.689458E3,4.998301E3,6.309666E3,1.9867852E3,1.0878203E3,2.340085E3,6.464535E3,6.153702E3,2.979683E3,3.9426843E3,3.0763545E3,0E0,1.779668E2,0E0,0E0,0E0,0E0,0E0,0E0,0E0,0E0,0E0,0E0,0E0,0E0,0E0,0E0,0E0,0E0,0E0,0E0,0E0,0E0,0E0,0E0,0E0,0E0,0E0,0E0,0E0,0E0,0E0,0E0,0E0,0E0,0E0,0E0,0E0,0E0,0E0,0E0,0E0,0E0,0E0,0E0,0E0,0E0,0E0,0E0,0E0,0E0,0E0,0E0,0E0,0E0,0E0,0E0,0E0,0E0],"parents":[2147483647,0,0,1,1,2,2,3,3,4,4,5,5,6,6,7,7,8,8,9,9,10,10,11,11,12,12,13,13,14,14,15,15,16,16,17,17,18,18,19,19,20,20,22,22,23,23,24,24,25,25,26,26,27,27,28,28,29,29,30,30,31,31,32,32,33,33,34,34,35,35,36,36,37,37,38,38,39,39,40,40,41,41,42,42,43,43,45,45,46,46,47,47,48,48,49,49,50,50,51,51,52,52,53,53,54,54,55,55,56,56,57,57,58,58,60,60],"right_children":[2,4,6,8,10,12,14,16,18,20,22,24,26,28,30,32,34,36,38,40,42,-1,44,46,48,50,52,54,56,58,60,62,64,66,68,70,72,74,76,78,80,82,84,86,-1,88,90,92,94,96,98,100,102,104,106,108,110,112,114,-1,116,-1,-1,-1,-1,-1,-1,-1,-1,-1,-1,-1,-1,-1,-1,-1,-1,-1,-1,-1,-1,-1,-1,-1,-1,-1,-1,-1,-1,-1,-1,-1,-1,-1,-1,-1,-1,-1,-1,-1,-1,-1,-1,-1,-1,-1,-1,-1,-1,-1,-1,-1,-1,-1,-1,-1,-1],"split_conditions":[1.2982001E1,8.000001E-1,1.7017017E2,1.6845686E2,1.06E1,1.6215992E1,2.2319998E1,4.7297462E1,1.8403333E0,5.5569997E0,1.0261579E1,2.1111166E1,2.5294497E1,1.8727833E1,3.4120178E2,1.5459054E1,3E-1,-1.1200833E0,1.4205182E1,1.784816E1,3.5142273E2,1.0962271E1,3.5637155E2,1.09859E1,1.5279083E2,7.128543E1,2.1659916E1,1.2620554E1,2.1841648E1,1.7457E1,2.2406927E1,3.7944847E1,5E-1,1.6343367E1,1.0557001E1,1.1966953E1,3.2267926E2,1.7017017E2,1.2219501E1,3.364854E2,2.8153334E0,1.4393129E2,1.3E0,2.0431387E1,5.482082E0,8.707238E0,7E-1,1.1753876E1,1.5373102E2,2.1602999E1,2E0,1.6766267E2,3.1365334E1,1.7973667E1,3.4365033E2,1.8328207E1,9.3E0,3.0014917E2,3.290014E1,-3.0258408E-1,7E-1,4.9307404E0,1.3286674E1,3.9442701E0,-4.8549995E0,2.585323E0,-2.1484818E0,1.1270029E1,-5.5051807E-2,2.9403155E0,-1.6453624E0,3.951055E0,-8.11618E-1,-5.5260224E0,9.665639E0,5.903204E0,-7.23225E-3,-2.2346592E0,8.418406E0,-2.1344604E-2,-5.511247E0,4.8928022E-1,3.9382987E0,-2.3459703E-1,-6.881778E0,-3.014206E0,-7.252051E0,-5.1063223E0,6.424166E0,-1.0435069E0,3.757839E0,-4.5273763E-1,-3.5347068E0,1.23296795E1,7.407959E-1,-3.1414843E0,-6.2469E0,-6.1331105E-1,-3.8927042E0,-4.913034E0,-2.9113771E-2,-8.906534E0,5.4232067E-1,-5.180437E0,3.5617197E0,6.89455E0,3.3361983E-1,1.216461E0,-2.0309258E0,9.789628E0,-4.4948206E0,-1.4888383E0,5.822655E0,-2.6141763E0,-8.949399E0,-5.7452135E0,-9.739378E0],"split_indices":[0,1,3,3,1,2,2,3,0,0,2,0,0,0,3,2,1,0,2,2,3,0,3,2,3,3,2,2,2,0,2,3,1,2,0,2,3,3,0,3,0,3,1,2,0,2,1,2,3,2,1,3,0,0,3,2,1,3,2,0,1,0,0,0,0,0,0,0,0,0,0,0,0,0,0,0,0,0,0,0,0,0,0,0,0,0,0,0,0,0,0,0,0,0,0,0,0,0,0,0,0,0,0,0,0,0,0,0,0,0,0,0,0,0,0,0,0],"split_type":[0,0,0,0,0,0,0,0,0,0,0,0,0,0,0,0,0,0,0,0,0,0,0,0,0,0,0,0,0,0,0,0,0,0,0,0,0,0,0,0,0,0,0,0,0,0,0,0,0,0,0,0,0,0,0,0,0,0,0,0,0,0,0,0,0,0,0,0,0,0,0,0,0,0,0,0,0,0,0,0,0,0,0,0,0,0,0,0,0,0,0,0,0,0,0,0,0,0,0,0,0,0,0,0,0,0,0,0,0,0,0,0,0,0,0,0,0],"sum_hessian":[2.344E3,8.6E2,1.484E3,6.17E2,2.43E2,1.007E3,4.77E2,3.05E2,3.12E2,1.93E2,5E1,3.79E2,6.28E2,3.56E2,1.21E2,1.43E2,1.62E2,4.8E1,2.64E2,3.8E1,1.55E2,1E0,4.9E1,1.77E2,2.02E2,4.25E2,2.03E2,9.6E1,2.6E2,1E2,2.1E1,5E1,9.3E1,1.48E2,1.4E1,1.8E1,3E1,7.9E1,1.85E2,1.4E1,2.4E1,1.46E2,9E0,4.8E1,1E0,2.5E1,1.52E2,1.81E2,2.1E1,2.02E2,2.23E2,1.29E2,7.4E1,1.2E1,8.4E1,2.53E2,7E0,2.5E1,7.5E1,1E0,2E1,3.8E1,1.2E1,8.8E1,5E0,1.04E2,4.4E1,9E0,5E0,2E0,1.6E1,2E1,1E1,1E0,7.8E1,1.75E2,1E1,1.1E1,3E0,4E0,2E1,9.7E1,4.9E1,3E0,6E0,2.7E1,2.1E1,3E0,2.2E1,1.15E2,3.7E1,3.9E1,1.42E2,1E0,2E1,1.23E2,7.9E1,1.38E2,8.5E1,1.21E2,8E0,7.3E1,1E0,9E0,3E0,6.7E1,1.7E1,1.8E2,7.3E1,6E0,1E0,1.2E1,1.3E1,6.8E1,7E0,8E0,1.2E1],"tree_param":{"num_deleted":"0","num_feature":"4","num_nodes":"117","size_leaf_vector":"1"}},{"base_weights":[1.6369101E-3,5.165475E0,-6.317336E0,1.1510898E0,9.310806E0,-3.3230875E0,-1.2742817E1,7.8242354E0,-1.5206176E0,1.206651E1,8.439725E-1,-7.0633025E0,1.3596205E0,-1.8156923E1,-8.515436E0,1.8317528E1,5.3885894E0,6.6433793E-1,-7.7585588E0,1.5384119E1,7.401439E0,5.5665803E0,-5.2597384E0,7.622318E-1,-8.778198E0,2.6928437E0,-1.5251218E1,-7.760094E0,-2.1488974E1,-5.499391E0,-1.511887E1,2.4048244E1,-8.040802E0,4.2885876E0,1.1193276E1,3.1678846E1,2.9451933E-2,-9.063363E0,3.878908E0,1.6324486E1,1.4762715E1,-4.898303E0,8.712392E0,-1.5621476E1,7.2864575E0,-5.8779266E-2,-1.127151E1,1.5991787E1,-2.804035E0,-7.792868E0,-1.9961355E1,6.098983E0,-3.4442737E0,-1.9687374E1,1.3384768E0,3.5607111E0,-1.2084863E1,-1.9566988E1,-3.0852377E1,-8.1087714E-1,-1.0943221E1,-1.1071011E1,-2.1916376E1,-5.3113346E0,8.864041E0,-6.2381325E0,-7.3490334E-1,7.221626E0,7.1815455E-1,1.0847985E1,7.1883434E-1,-2.73776E0,4.6501985E-1,-1.368364E0,-4.044775E0,6.418258E0,-4.2571526E0,1.2293879E0,5.330841E0,-3.4273906E0,8.311476E-1,4.755673E0,1.411677E0,-6.641312E0,1.338196E-1,5.554418E0,8.8001937E-1,-2.012879E0,4.4731374E0,-1.723987E-2,-5.6823764E0,8.612693E0,-3.7922843E0,-1.3938617E0,2.4453528E0,5.417168E0,-2.4593182E0,-7.143954E0,-3.011933E0,2.3559585E0,-3.0860722E0,-2.347289E0,6.9411576E-1,-7.614551E-1,-7.2273836E0,-2.1081963E0,2.183462E0,-2.431508E0,7.800603E0,-4.8737197E0,1.5557401E0,-4.850551E0,-7.3779597E0,-1.0348488E1,-5.527547E0,2.6758542E0,-3.0769107E0,-4.275749E0,3.5535818E-1,-4.3727956E0,6.695374E-1,-2.5001E0,-8.038165E0],"categories":[],"categories_nodes":[],"categories_segments":[],"categories_sizes":[],"default_left":[0,0,0,0,0,0,0,0,0,0,0,0,0,0,0,0,0,0,0,0,0,0,0,0,0,0,0,0,0,0,0,0,0,0,0,0,0,0,0,0,0,0,0,0,0,0,0,0,0,0,0,0,0,0,0,0,0,0,0,0,0,0,0,0,0,0,0,0,0,0,0,0,0,0,0,0,0,0,0,0,0,0,0,0,0,0,0,0,0,0,0,0,0,0,0,0,0,0,0,0,0,0,0,0,0,0,0,0,0,0,0,0,0,0,0,0,0,0,0,0,0,0,0],"id":2,"left_children":[1,3,5,7,9,11,13,15,17,19,21,23,25,27,29,31,33,35,37,39,41,43,45,47,49,51,53,55,57,59,61,63,65,67,-1,69,71,73,75,-1,77,79,81,83,85,87,89,91,93,95,97,99,101,103,105,107,109,111,113,115,117,119,121,-1,-1,-1,-1,-1,-1,-1,-1,-1,-1,-1,-1,-1,-1,-1,-1,-1,-1,-1,-1,-1,-1,-1,-1,-1,-1,-1,-1,-1,-1,-1,-1,-1,-1,-1,-1,-1,-1,-1,-1,-1,-1,-1,-1,-1,-1,-1,-1,-1,-1,-1,-1,-1,-1,-1,-1,-1,-1,-1,-1],"loss_changes":[7.6550336E4,2.1472762E4,2.0255316E4,1.1725348E4,1.4805691E4,1.2637438E4,7.5126914E3,4.7061875E3,6.4110776E3,7.2995625E3,4.5548716E3,5.3880996E3,7.149921E3,4.89109E3,3.7009443E3,5.4801914E3,5.2476406E3,6.871113E3,1.8876792E3,5.9635234E3,3.2836768E3,3.3570613E3,2.156759E3,4.0096653E3,3.4697285E3,6.2503623E3,1.7926177E3,1.8545459E3,1.3759102E3,3.3602249E3,1.3807686E3,7.180918E3,4.481861E2,5.5650596E3,0E0,8.3188965E2,4.7892915E3,2.1270625E3,4.4179775E3,0E0,8.777473E3,1.0326338E3,5.1320566E3,7.4277344E2,4.0025063E3,3.8832336E3,2.751194E3,5.460699E3,1.2487539E3,3.32958E3,7.5454004E2,5.5996963E3,2.7166582E3,1.3737969E3,3.4928973E2,3.090484E3,2.0244929E3,1.2080273E3,1.339668E2,6.708881E3,2.4650605E3,1.8509434E3,1.1679541E3,0E0,0E0,0E0,0E0,0E0,0E0,0E0,0E0,0E0,0E0,0E0,0E0,0E0,0E0,0E0,0E0,0E0,0E0,0E0,0E0,0E0,0E0,0E0,0E0,0E0,0E0,0E0,0E0,0E0,0E0,0E0,0E0,0E0,0E0,0E0,0E0,0E0,0E0,0E0,0E0,0E0,0E0,0E0,0E0,0E0,0E0,0E0,0E0,0E0,0E0,0E0,0E0,0E0,0E0,0E0,0E0,0E0,0E0,0E0,0E0],"parents":[2147483647,0,0,1,1,2,2,3,3,4,4,5,5,6,6,7,7,8,8,9,9,10,10,11,11,12,12,13,13,14,14,15,15,16,16,17,17,18,18,19,19,20,20,21,21,22,22,23,23,24,24,25,25,26,26,27,27,28,28,29,29,30,30,31,31,32,32,33,33,35,35,36,36,37,37,38,38,40,40,41,41,42,42,43,43,44,44,45,45,46,46,47,47,48,48,49,49,50,50,51,51,52,52,53,53,54,54,55,55,56,56,57,57,58,58,59,59,60,60,61,61,62,62],"right_children":[2,4,6,8,10,12,14,16,18,20,22,24,26,28,30,32,34,36,38,40,42,44,46,48,50,52,54,56,58,60,62,64,66,68,-1,70,72,74,76,-1,78,80,82,84,86,88,90,92,94,96,98,100,102,104,106,108,110,112,114,116,118,120,122,-1,-1,-1,-1,-1,-1,-1,-1,-1,-1,-1,-1,-1,-1,-1,-1,-1,-1,-1,-1,-1,-1,-1,-1,-1,-1,-1,-1,-1,-1,-1,-1,-1,-1,-1,-1,-1,-1,-1,-1,-1,-1,-1,-1,-1,-1,-1,-1,-1,-1,-1,-1,-1,-1,-1,-1,-1,-1,-1,-1],"split_conditions":[1.8373667E1,1.3557863E2,2.0073025E1,1.4133153E1,9.0000004E-1,1.4099495E2,1.4393129E2,2.5608131E1,1.528825E1,1.8844202E1,3.2088892E2,1.29249525E1,2.2000002E1,2.1290335E1,2.6574244E1,1.5E0,1.7877832E1,1.1934711E0,7.9999995E0,1.3661143E2,-7.008337E-2,1.4393129E2,2.2319998E1,2.0532001E1,1.48E1,2.8304918E1,2.6975748E1,2.1602999E1,3.2138947E1,2.72695E1,3.1163345E2,8.36758E0,3.2E0,3.7403336E0,1.1193276E1,9.144501E0,1.0808219E1,1E-1,1.06E1,1.6324486E1,1.7017017E2,3.1499988E2,6.252834E0,1.67695E1,1.6488177E2,6.1E0,5.2999997E0,8.546633E1,2.72695E1,6.6271186E0,9.73175E1,3.3999365E2,8.000001E-1,2.1111166E1,1.5034041E1,2.1068459E1,2.0809084E1,9.73175E1,2.7346586E1,8.000001E-1,2.0319861E2,2.4917041E2,2.134242E1,-5.3113346E0,8.864041E0,-6.2381325E0,-7.3490334E-1,7.221626E0,7.1815455E-1,1.0847985E1,7.1883434E-1,-2.73776E0,4.6501985E-1,-1.368364E0,-4.044775E0,6.418258E0,-4.2571526E0,1.2293879E0,5.330841E0,-3.4273906E0,8.311476E-1,4.755673E0,1.411677E0,-6.641312E0,1.338196E-1,5.554418E0,8.8001937E-1,-2.012879E0,4.4731374E0,-1.723987E-2,-5.6823764E0,8.612693E0,-3.7922843E0,-1.3938617E0,2.4453528E0,5.417168E0,-2.4593182E0,-7.143954E0,-3.011933E0,2.3559585E0,-3.0860722E0,-2.347289E0,6.9411576E-1,-7.614551E-1,-7.2273836E0,-2.1081963E0,2.183462E0,-2.431508E0,7.800603E0,-4.8737197E0,1.5557401E0,-4.850551E0,-7.3779597E0,-1.0348488E1,-5.527547E0,2.6758542E0,-3.0769107E0,-4.275749E0,3.5535818E-1,-4.3727956E0,6.695374E-1,-2.5001E0,-8.038165E0],"split_indices":[0,3,2,2,1,3,3,3,0,2,3,2,1,0,2,1,0,3,1,3,0,3,2,0,1,0,0,2,2,0,3,2,1,0,0,0,3,1,1,0,3,3,0,0,3,1,1,3,0,3,3,3,1,0,2,2,0,3,0,1,3,3,0,0,0,0,0,0,0,0,0,0,0,0,0,0,0,0,0,0,0,0,0,0,0,0,0,0,0,0,0,0,0,0,0,0,0,0,0,0,0,0,0,0,0,0,0,0,0,0,0,0,0,0,0,0,0,0,0,0,0,0,0],"split_type":[0,0,0,0,0,0,0,0,0,0,0,0,0,0,0,0,0,0,0,0,0,0,0,0,0,0,0,0,0,0,0,0,0,0,0,0,0,0,0,0,0,0,0,0,0,0,0,0,0,0,0,0,0,0,0,0,0,0,0,0,0,0,0,0,0,0,0,0,0,0,0,0,0,0,0,0,0,0,0,0,0,0,0,0,0,0,0,0,0,0,0,0,0,0,0,0,0,0,0,0,0,0,0,0,0,0,0,0,0,0,0,0,0,0,0,0,0,0,0,0,0,0,0],"sum_hessian":[2.344E3,1.29E3,1.054E3,6.56E2,6.34E2,7.2E2,3.34E2,1.87E2,4.69E2,4.78E2,1.56E2,4E2,3.2E2,1.45E2,1.89E2,3.4E1,1.53E2,3.48E2,1.21E2,2.78E2,2E2,8.8E1,6.8E1,7.2E1,3.28E2,2.97E2,2.3E1,3.6E1,1.09E2,1.31E2,5.8E1,2.8E1,6E0,1.49E2,4E0,6E0,3.42E2,1.09E2,1.2E1,3E0,2.75E2,1.9E1,1.81E2,6E0,8.2E1,3.7E1,3.1E1,1.3E1,5.9E1,3.03E2,2.5E1,1.91E2,1.06E2,1.8E1,5E0,1E1,2.6E1,9.3E1,1.6E1,7.1E1,6E1,3.8E1,2E1,3E0,2.5E1,1E0,5E0,1.2E1,1.37E2,5E0,1E0,4.8E1,2.94E2,5.5E1,5.4E1,6E0,6E0,6.1E1,2.14E2,1E1,9E0,6.4E1,1.17E2,4E0,2E0,2.2E1,6E1,2.6E1,1.1E1,1.3E1,1.8E1,9E0,4E0,5.1E1,8E0,4E0,2.99E2,1.7E1,8E0,1.73E2,1.8E1,6E1,4.6E1,4E0,1.4E1,2E0,3E0,7E0,3E0,2.1E1,5E0,5.8E1,3.5E1,1.1E1,5E0,3.5E1,3.6E1,4.7E1,1.3E1,3E1,8E0,6E0,1.4E1],"tree_param":{"num_deleted":"0","num_feature":"4","num_nodes":"123","size_leaf_vector":"1"}},{"base_weights":[-3.6900844E-3,5.7519455E0,-3.02175E0,8.454791E0,-1.3204378E0,-2.5597906E0,-1.9837732E1,1.6534632E0,1.0012035E1,7.260732E-1,-9.951707E0,-4.277871E0,1.4420412E0,-1.0400672E1,-2.2166885E1,4.131547E0,-9.045632E0,1.7389439E1,7.298734E0,-3.5134141E0,4.1608443E0,9.185926E0,-1.1646736E1,-1.3886205E0,-6.6298575E0,5.134634E0,-3.4320018E0,-9.108891E-1,-3.264471E0,-6.9271903E0,-2.9783983E0,2.324679E-1,1.2325042E1,-1.5057124E1,6.427044E-1,1.4985852E1,1.5380864E1,4.7130823E0,1.2587464E1,-4.317509E0,9.2427435E0,2.6448149E1,1.9592682E0,-5.62535E0,-1.6376345E1,8.656183E0,-2.188117E0,-4.77653E0,-1.1359536E1,7.536313E0,-3.424527E0,-1.6153424E0,-1.4209387E1,-8.909436E-1,4.6048155E0,8.9458685E0,1.2721453E0,-1.4808757E0,-6.908094E0,2.5820742E0,-5.446406E0,2.757753E0,7.435085E0,1.6006348E0,-6.010067E0,8.326747E0,2.5346084E0,-7.857118E-1,-6.5695834E0,1.7706555E0,1.2511346E1,-3.491754E-1,4.255355E0,-2.8109677E0,2.244677E0,-9.551862E0,-4.0162473E0,7.0292306E0,5.427355E-1,-3.4302351E0,-4.6586865E-1,-1.2374926E0,-5.9593744E0,-4.0959964E0,-2.2901537E0,3.3150878E0,-2.717126E-1,-1.7843374E0,1.960009E0,-5.20246E0,-2.7775335E-1,-7.053668E0,-2.3204725E0],"categories":[],"categories_nodes":[],"categories_segments":[],"categories_sizes":[],"default_left":[0,0,0,0,0,0,0,0,0,0,0,0,0,0,0,0,0,0,0,0,0,0,0,0,0,0,0,0,0,0,0,0,0,0,0,0,0,0,0,0,0,0,0,0,0,0,0,0,0,0,0,0,0,0,0,0,0,0,0,0,0,0,0,0,0,0,0,0,0,0,0,0,0,0,0,0,0,0,0,0,0,0,0,0,0,0,0,0,0,0,0,0,0],"id":3,"left_children":[1,3,5,7,9,11,13,15,17,19,21,23,25,27,29,31,33,35,37,39,41,-1,43,45,47,49,51,-1,-1,-1,-1,53,55,57,59,61,-1,63,65,67,-1,69,71,73,75,77,79,81,83,85,87,89,91,-1,-1,-1,-1,-1,-1,-1,-1,-1,-1,-1,-1,-1,-1,-1,-1,-1,-1,-1,-1,-1,-1,-1,-1,-1,-1,-1,-1,-1,-1,-1,-1,-1,-1,-1,-1,-1,-1,-1,-1],"loss_changes":[4.075203E4,1.543742E4,1.1904635E4,6.168785E3,3.963959E3,1.0312495E4,6.7064355E2,2.9538306E3,9.381211E3,2.6648423E3,3.3137212E3,7.119252E3,8.1346553E3,2.3754883E0,1.3253613E2,2.8723723E3,1.2327457E3,9.573766E3,4.7131836E3,2.396104E3,4.903968E3,0E0,1.1039868E3,3.8094714E3,5.012283E3,5.3087925E3,3.7949204E3,0E0,0E0,0E0,0E0,3.0469177E3,3.9751787E3,9.349375E2,1.5036129E3,6.5835938E3,0E0,3.7416387E3,6.9222305E3,2.3613853E3,0E0,2.574956E3,3.5674097E3,1.0517477E3,6.367446E2,3.4982996E3,2.5547312E3,4.017456E3,1.2802129E3,5.9726924E3,1.471063E3,1.8055977E3,1.504604E3,0E0,0E0,0E0,0E0,0E0,0E0,0E0,0E0,0E0,0E0,0E0,0E0,0E0,0E0,0E0,0E0,0E0,0E0,0E0,0E0,0E0,0E0,0E0,0E0,0E0,0E0,0E0,0E0,0E0,0E0,0E0,0E0,0E0,0E0,0E0,0E0,0E0,0E0,0E0,0E0],"parents":[2147483647,0,0,1,1,2,2,3,3,4,4,5,5,6,6,7,7,8,8,9,9,10,10,11,11,12,12,13,13,14,14,15,15,16,16,17,17,18,18,19,19,20,20,22,22,23,23,24,24,25,25,26,26,31,31,32,32,33,33,34,34,35,35,37,37,38,38,39,39,41,41,42,42,43,43,44,44,45,45,46,46,47,47,48,48,49,49,50,50,51,51,52,52],"right_children":[2,4,6,8,10,12,14,16,18,20,22,24,26,28,30,32,34,36,38,40,42,-1,44,46,48,50,52,-1,-1,-1,-1,54,56,58,60,62,-1,64,66,68,-1,70,72,74,76,78,80,82,84,86,88,90,92,-1,-1,-1,-1,-1,-1,-1,-1,-1,-1,-1,-1,-1,-1,-1,-1,-1,-1,-1,-1,-1,-1,-1,-1,-1,-1,-1,-1,-1,-1,-1,-1,-1,-1,-1,-1,-1,-1,-1,-1],"split_conditions":[1.2219501E1,8.000001E-1,3.2138947E1,3.3570006E0,1.06E1,1.7394893E2,5E-1,3.364854E2,5.7903333E0,6.482465E1,1.0261579E1,2.0963251E1,1.5E0,3.290014E1,2.8094498E1,3.1499988E2,2.1734581E1,3.533047E2,9.848667E0,1.0299999E1,8.344161E1,9.185926E0,4.840737E1,1.14862E1,1.9966211E1,2.8094498E1,3.3757642E2,-9.108891E-1,-3.264471E0,-6.9271903E0,-2.9783983E0,3.040333E0,1.5517629E1,3.3859552E2,2.7105392E1,5.0569997E0,1.5380864E1,3.5637155E2,4.358564E1,8.8E0,9.2427435E0,6.740741E1,1.0557001E1,3.7944847E1,5.3265476E1,4.358564E1,9.387649E0,2.8200005E1,1.4393129E2,3.3337607E2,2.003712E2,1.0564941E1,3.481599E2,-8.909436E-1,4.6048155E0,8.9458685E0,1.2721453E0,-1.4808757E0,-6.908094E0,2.5820742E0,-5.446406E0,2.757753E0,7.435085E0,1.6006348E0,-6.010067E0,8.326747E0,2.5346084E0,-7.857118E-1,-6.5695834E0,1.7706555E0,1.2511346E1,-3.491754E-1,4.255355E0,-2.8109677E0,2.244677E0,-9.551862E0,-4.0162473E0,7.0292306E0,5.427355E-1,-3.4302351E0,-4.6586865E-1,-1.2374926E0,-5.9593744E0,-4.0959964E0,-2.2901537E0,3.3150878E0,-2.717126E-1,-1.7843374E0,1.960009E0,-5.20246E0,-2.7775335E-1,-7.053668E0,-2.3204725E0],"split_indices":[0,1,2,0,1,3,1,3,0,3,2,0,1,2,0,3,2,3,0,1,3,0,3,2,2,0,3,0,0,0,0,0,2,3,2,0,0,3,3,1,0,3,0,3,3,3,3,1,3,3,3,2,3,0,0,0,0,0,0,0,0,0,0,0,0,0,0,0,0,0,0,0,0,0,0,0,0,0,0,0,0,0,0,0,0,0,0,0,0,0,0,0,0],"split_type":[0,0,0,0,0,0,0,0,0,0,0,0,0,0,0,0,0,0,0,0,0,0,0,0,0,0,0,0,0,0,0,0,0,0,0,0,0,0,0,0,0,0,0,0,0,0,0,0,0,0,0,0,0,0,0,0,0,0,0,0,0,0,0,0,0,0,0,0,0,0,0,0,0,0,0,0,0,0,0,0,0,0,0,0,0,0,0,0,0,0,0,0,0],"sum_hessian":[2.344E3,8.06E2,1.538E3,5.83E2,2.23E2,1.498E3,4E1,1.09E2,4.74E2,1.81E2,4.2E1,1.048E3,4.5E2,9E0,3.1E1,8.9E1,2E1,1.26E2,3.48E2,8.1E1,1E2,1E0,4.1E1,4.71E2,5.77E2,2.56E2,1.94E2,1E0,8E0,2.8E1,3E0,6.1E1,2.8E1,1.2E1,8E0,1.19E2,7E0,2.35E2,1.13E2,8E1,1E0,8E0,9.2E1,1.9E1,2.2E1,3.4E1,4.37E2,4.16E2,1.61E2,2E2,5.6E1,1.67E2,2.7E1,5.1E1,1E1,8E0,2E1,6E0,6E0,6E0,2E0,7.6E1,4.3E1,2.3E2,5E0,2.3E1,9E1,7.4E1,6E0,4E0,4E0,7.4E1,1.8E1,1.5E1,4E0,2E0,2E1,1E1,2.4E1,2.7E1,4.1E2,4E2,1.6E1,9.8E1,6.3E1,1.41E2,5.9E1,4.5E1,1.1E1,6E0,1.61E2,1E1,1.7E1],"tree_param":{"num_deleted":"0","num_feature":"4","num_nodes":"93","size_leaf_vector":"1"}},{"base_weights":[3.4766924E-3,2.5936334E0,-3.3754344E0,-6.8545397E-3,5.314339E0,1.6273786E0,-4.878996E0,6.086513E0,-1.1553307E0,8.255202E0,2.2082777E0,-7.579518E-1,5.873765E0,-3.824889E0,-1.0048682E1,1.7140825E1,1.2065281E0,1.6887983E1,-1.4083186E0,7.452571E0,3.993051E1,3.221455E0,-3.5368524E0,5.5727158E0,-4.105626E0,-4.636948E0,9.179168E0,-3.144479E0,-1.0249039E1,-1.9132439E1,-8.446577E0,3.322544E0,3.1615091E1,7.4017115E0,-4.860741E0,3.025179E1,-4.038769E0,-6.9247856E0,-7.282607E-1,8.250063E0,-1.23832035E1,8.6152387E-1,1.3444312E1,4.3267856E0,-4.083382E0,2.1537704E1,-6.9533753E0,-6.3226905E0,1.297365E1,-6.257082E0,8.503095E0,-6.110357E0,6.610368E0,2.2949343E1,4.949133E0,-4.8713803E0,1.1255205E0,-6.9803653E0,-1.2909984E1,-6.667151E0,-1.0658071E1,-7.380744E0,-1.6891092E1,2.490919E0,-3.3862255E0,3.5639985E0,1.1851677E1,4.3375763E-1,7.929642E0,-3.298151E0,5.041334E0,1.0781649E1,1.1255448E0,-3.6704853E0,3.0824664E0,4.9614623E-1,-3.9499156E0,3.0642593E0,-6.101803E-1,1.2300628E1,2.3406863E0,-7.1747622E0,3.2556727E0,1.23276226E-1,2.461795E0,7.3968234E0,-2.854241E0,-7.212124E-1,8.042059E0,-3.472988E0,1.3818524E0,1.9314731E0,-3.5568843E0,1.3970229E1,2.0202756E0,-6.859481E0,-1.4177045E0,-5.8239756E0,4.287373E0,-6.1952925E-1,4.3024487E0,8.055109E0,-4.814545E-1,2.1174052E0,-4.7592626E0,-9.671789E-1,-2.3387408E0,8.0117023E-1,-3.4126234E0,-2.872049E0,2.3699977E0,4.566393E-2,-4.266383E0,-5.7141614E-1,-3.5398529E0,-2.795551E0,-7.066762E-2,-6.7149625E0,-2.9311657E0],"categories":[],"categories_nodes":[],"categories_segments":[],"categories_sizes":[],"default_left":[0,0,0,0,0,0,0,0,0,0,0,0,0,0,0,0,0,0,0,0,0,0,0,0,0,0,0,0,0,0,0,0,0,0,0,0,0,0,0,0,0,0,0,0,0,0,0,0,0,0,0,0,0,0,0,0,0,0,0,0,0,0,0,0,0,0,0,0,0,0,0,0,0,0,0,0,0,0,0,0,0,0,0,0,0,0,0,0,0,0,0,0,0,0,0,0,0,0,0,0,0,0,0,0,0,0,0,0,0,0,0,0,0,0,0,0,0,0,0],"id":4,"left_children":[1,3,5,7,9,11,13,15,17,19,21,23,25,27,29,31,33,35,37,39,41,43,45,47,49,51,53,55,57,59,61,63,65,67,69,71,73,75,77,79,81,-1,-1,83,85,87,89,91,93,95,97,-1,99,101,103,105,107,109,111,-1,113,115,117,-1,-1,-1,-1,-1,-1,-1,-1,-1,-1,-1,-1,-1,-1,-1,-1,-1,-1,-1,-1,-1,-1,-1,-1,-1,-1,-1,-1,-1,-1,-1,-1,-1,-1,-1,-1,-1,-1,-1,-1,-1,-1,-1,-1,-1,-1,-1,-1,-1,-1,-1,-1,-1,-1,-1,-1],"loss_changes":[2.053198E4,9.395853E3,7.665374E3,4.765731E3,5.9100625E3,2.394904E3,4.2284453E3,5.805366E3,2.6393804E3,8.168467E3,1.856599E3,3.2442175E3,2.995645E3,2.8177002E3,1.7594111E3,6.4952695E3,2.8926538E3,2.3594683E3,2.1183154E3,5.259115E3,1.3192236E3,2.197718E3,4.261814E3,4.747996E3,2.765915E3,3.850179E3,3.6725615E3,4.363439E3,4.4914502E2,2.608916E2,9.0138086E2,1.4034935E3,2.0221904E3,4.268796E3,5.3668574E3,6.186963E2,5.9498206E2,3.3415166E3,7.23585E3,4.285076E3,3.7431077E3,0E0,0E0,3.566375E3,5.853351E3,8.213616E2,2.3513599E3,1.5592228E3,6.6033667E3,2.0792092E3,2.701199E3,0E0,9.0154114E2,1.4798857E3,2.3505093E3,2.0031777E3,3.3331628E3,1.233232E3,5.6740137E2,0E0,4.7465088E1,1.4239067E3,2.5058545E2,0E0,0E0,0E0,0E0,0E0,0E0,0E0,0E0,0E0,0E0,0E0,0E0,0E0,0E0,0E0,0E0,0E0,0E0,0E0,0E0,0E0,0E0,0E0,0E0,0E0,0E0,0E0,0E0,0E0,0E0,0E0,0E0,0E0,0E0,0E0,0E0,0E0,0E0,0E0,0E0,0E0,0E0,0E0,0E0,0E0,0E0,0E0,0E0,0E0,0E0,0E0,0E0,0E0,0E0,0E0,0E0],"parents":[2147483647,0,0,1,1,2,2,3,3,4,4,5,5,6,6,7,7,8,8,9,9,10,10,11,11,12,12,13,13,14,14,15,15,16,16,17,17,18,18,19,19,20,20,21,21,22,22,23,23,24,24,25,25,26,26,27,27,28,28,29,29,30,30,31,31,32,32,33,33,34,34,35,35,36,36,37,37,38,38,39,39,40,40,43,43,44,44,45,45,46,46,47,47,48,48,49,49,50,50,52,52,53,53,54,54,55,55,56,56,57,57,58,58,60,60,61,61,62,62],"right_children":[2,4,6,8,10,12,14,16,18,20,22,24,26,28,30,32,34,36,38,40,42,44,46,48,50,52,54,56,58,60,62,64,66,68,70,72,74,76,78,80,82,-1,-1,84,86,88,90,92,94,96,98,-1,100,102,104,106,108,110,112,-1,114,116,118,-1,-1,-1,-1,-1,-1,-1,-1,-1,-1,-1,-1,-1,-1,-1,-1,-1,-1,-1,-1,-1,-1,-1,-1,-1,-1,-1,-1,-1,-1,-1,-1,-1,-1,-1,-1,-1,-1,-1,-1,-1,-1,-1,-1,-1,-1,-1,-1,-1,-1,-1,-1,-1,-1,-1,-1],"split_conditions":[1.880075E1,1.3557863E2,1.484318E1,1.257426E1,1.8556595E1,1.5279083E2,1.0000002E1,6.7382507E0,1.1934711E0,1.8359999E1,5.8E0,7.325417E1,2.26445E1,2.6574244E1,4.6034E1,1.0564941E1,1.09859E1,5E-1,5.640333E0,3.5637155E2,2.1695E0,2.800837E1,2.0966715E1,2.9706408E1,2.72695E1,1.2031756E1,1E-1,1.7497748E2,9E-1,2.9088802E1,3.2138947E1,5.7903333E0,3.3570006E0,1.1213318E2,1.2261158E1,9.144501E0,5.1000004E0,1.9443531E1,6.909085E0,1.3661143E2,3.5828357E2,8.6152387E-1,1.3444312E1,2.199538E1,2.9486926E2,6.5E0,1.646325E1,1.09859E1,2.0532001E1,8.153821E1,1E-1,-6.110357E0,1.3679999E1,1.4539945E1,1.4440443E1,2.7213251E1,3.3416608E2,6E-1,2.0963251E1,-6.667151E0,2.3450752E1,2.3039999E1,2.657575E1,2.490919E0,-3.3862255E0,3.5639985E0,1.1851677E1,4.3375763E-1,7.929642E0,-3.298151E0,5.041334E0,1.0781649E1,1.1255448E0,-3.6704853E0,3.0824664E0,4.9614623E-1,-3.9499156E0,3.0642593E0,-6.101803E-1,1.2300628E1,2.3406863E0,-7.1747622E0,3.2556727E0,1.23276226E-1,2.461795E0,7.3968234E0,-2.854241E0,-7.212124E-1,8.042059E0,-3.472988E0,1.3818524E0,1.9314731E0,-3.5568843E0,1.3970229E1,2.0202756E0,-6.859481E0,-1.4177045E0,-5.8239756E0,4.287373E0,-6.1952925E-1,4.3024487E0,8.055109E0,-4.814545E-1,2.1174052E0,-4.7592626E0,-9.671789E-1,-2.3387408E0,8.0117023E-1,-3.4126234E0,-2.872049E0,2.3699977E0,4.566393E-2,-4.266383E0,-5.7141614E-1,-3.5398529E0,-2.795551E0,-7.066762E-2,-6.7149625E0,-2.9311657E0],"split_indices":[0,3,2,2,2,3,1,0,3,2,1,3,0,2,3,2,2,1,0,3,0,2,2,3,0,2,1,3,1,2,2,0,0,3,2,0,1,3,0,3,3,0,0,2,3,1,0,2,0,3,1,0,2,2,2,0,3,1,0,0,0,2,0,0,0,0,0,0,0,0,0,0,0,0,0,0,0,0,0,0,0,0,0,0,0,0,0,0,0,0,0,0,0,0,0,0,0,0,0,0,0,0,0,0,0,0,0,0,0,0,0,0,0,0,0,0,0,0,0],"split_type":[0,0,0,0,0,0,0,0,0,0,0,0,0,0,0,0,0,0,0,0,0,0,0,0,0,0,0,0,0,0,0,0,0,0,0,0,0,0,0,0,0,0,0,0,0,0,0,0,0,0,0,0,0,0,0,0,0,0,0,0,0,0,0,0,0,0,0,0,0,0,0,0,0,0,0,0,0,0,0,0,0,0,0,0,0,0,0,0,0,0,0,0,0,0,0,0,0,0,0,0,0,0,0,0,0,0,0,0,0,0,0,0,0,0,0,0,0,0,0],"sum_hessian":[2.344E3,1.327E3,1.017E3,6.79E2,6.48E2,2.35E2,7.82E2,1.07E2,5.72E2,3.32E2,3.16E2,1.51E2,8.4E1,6.51E2,1.31E2,3.2E1,7.5E1,7E0,5.65E2,3.25E2,7E0,2.69E2,4.7E1,5.2E1,9.9E1,2E1,6.4E1,5.9E2,6.1E1,1.8E1,1.13E2,1.7E1,1.5E1,3.7E1,3.8E1,4E0,3E0,6.1E1,5.04E2,3.13E2,1.2E1,1E0,6E0,2.34E2,3.5E1,5E0,4.2E1,2E1,3.2E1,8.5E1,1.4E1,8E0,1.2E1,1.4E1,5E1,4.2E2,1.7E2,2.9E1,3.2E1,1.2E1,6E0,1.02E2,1.1E1,1.3E1,4E0,5E0,1E1,2.9E1,8E0,3E1,8E0,3E0,1E0,2E0,1E0,2.6E1,3.5E1,5.3E1,4.51E2,3E0,3.1E2,8E0,4E0,1.17E2,1.17E2,5E0,3E1,1E0,4E0,3E1,1.2E1,6E0,1.4E1,4E0,2.8E1,6E0,7.9E1,2E0,1.2E1,6E0,6E0,1.2E1,2E0,4.6E1,4E0,2.7E2,1.5E2,1.52E2,1.8E1,2.5E1,4E0,3E0,2.9E1,1E0,5E0,8E1,2.2E1,5E0,6E0],"tree_param":{"num_deleted":"0","num_feature":"4","num_nodes":"119","size_leaf_vector":"1"}},{"base_weights":[2.1818774E-2,3.1213214E0,-1.6034707E0,4.1942654E0,-3.2421455E0,9.304721E-1,-2.9624107E0,3.9991603E0,3.6703823E1,9.1643095E-1,-8.641802E0,-9.6074E0,1.4197506E0,-2.6149883E0,-1.1041869E1,8.453638E0,2.804494E0,1.2837455E1,2.7661126E0,-1.5548673E0,2.630044E1,-1.1754037E1,4.229641E-1,-1.7950317E1,-4.3140454E0,2.9635994E0,-2.3567054E0,-4.3919907E0,-1.2122723E0,-5.3411303E0,-1.24782915E1,6.5527167E0,2.0006762E1,-7.3970237E0,3.628815E0,-1.56538515E1,1.4575114E0,1.1430167E1,1.8001379E0,-1.2473918E1,8.0255127E-1,7.05926E0,-7.2217975E0,9.563805E-1,-6.297328E0,-8.765919E0,1.1233053E1,1.5577254E0,1.2709728E1,9.232977E0,-4.0070634E0,-2.945356E0,-9.370912E0,2.27282E-1,-4.534356E0,-4.1004488E-1,-1.8491572E0,-1.3971693E1,-7.109409E0,3.740609E0,-1.1302888E-1,-3.7916305E0,7.300859E0,-4.1863146E0,2.3399794E0,4.0369287E0,7.622646E-1,-1.5288652E0,-6.2876263E0,5.7008896E0,-2.4400334E-1,-6.1303025E-1,1.4230924E0,4.467354E-2,-3.9662454E0,2.76324E0,-2.402092E0,2.8229928E0,1.4221191E-3,-3.6955144E0,-8.158463E-1,2.2411761E0,-4.315179E0,4.8637958E0,-5.558613E-1,1.3257576E-2,2.363903E0,6.557022E0,1.0242815E0,-1.4244778E-1,7.7828274E0,-1.9100229E0,7.386805E-1,-1.0896446E0,2.3644617E0,-1.4201349E-1,-3.7115586E0,6.5413964E-1,-8.63389E-1,1.6651156E0,-1.611765E0,-5.510769E0,-3.5542939E0,-3.0556297E-1,-2.3230348E0],"categories":[],"categories_nodes":[],"categories_segments":[],"categories_sizes":[],"default_left":[0,0,0,0,0,0,0,0,0,0,0,0,0,0,0,0,0,0,0,0,0,0,0,0,0,0,0,0,0,0,0,0,0,0,0,0,0,0,0,0,0,0,0,0,0,0,0,0,0,0,0,0,0,0,0,0,0,0,0,0,0,0,0,0,0,0,0,0,0,0,0,0,0,0,0,0,0,0,0,0,0,0,0,0,0,0,0,0,0,0,0,0,0,0,0,0,0,0,0,0,0,0,0,0,0],"id":5,"left_children":[1,3,5,7,9,11,13,15,17,19,21,23,25,27,29,31,33,-1,-1,35,37,39,41,43,45,47,49,51,53,55,57,59,61,63,65,67,69,-1,71,73,75,77,79,-1,-1,81,83,85,87,89,91,93,95,97,99,-1,-1,101,103,-1,-1,-1,-1,-1,-1,-1,-1,-1,-1,-1,-1,-1,-1,-1,-1,-1,-1,-1,-1,-1,-1,-1,-1,-1,-1,-1,-1,-1,-1,-1,-1,-1,-1,-1,-1,-1,-1,-1,-1,-1,-1,-1,-1,-1,-1],"loss_changes":[1.1818152E4,5.523508E3,5.3022656E3,4.236084E3,2.635141E3,2.787544E3,2.7837246E3,3.6375615E3,2.7468945E2,4.2439014E3,1.4437671E3,9.8244995E2,3.009577E3,2.3925854E3,2.690869E2,3.05333E3,4.6015146E3,0E0,0E0,2.6560474E3,1.6660527E3,3.5350244E2,7.6124115E2,6.454082E2,1.2058875E3,4.9950723E3,2.9060657E3,3.026336E3,2.5787012E3,2.4272888E1,1.5724219E2,5.1700244E3,3.1343145E3,4.1945703E3,5.3544673E3,5.0926904E2,2.087302E3,0E0,4.3634014E1,3.4137598E2,2.9596866E2,1.3262082E2,1.2712509E2,0E0,0E0,1.2932756E3,2.9069055E2,3.0711357E3,3.8365552E3,3.0944082E3,2.0307288E3,2.4824517E3,2.5307432E3,2.2928232E3,1.4076538E3,0E0,0E0,6.541504E0,2.686966E1,0E0,0E0,0E0,0E0,0E0,0E0,0E0,0E0,0E0,0E0,0E0,0E0,0E0,0E0,0E0,0E0,0E0,0E0,0E0,0E0,0E0,0E0,0E0,0E0,0E0,0E0,0E0,0E0,0E0,0E0,0E0,0E0,0E0,0E0,0E0,0E0,0E0,0E0,0E0,0E0,0E0,0E0,0E0,0E0,0E0,0E0],"parents":[2147483647,0,0,1,1,2,2,3,3,4,4,5,5,6,6,7,7,8,8,9,9,10,10,11,11,12,12,13,13,14,14,15,15,16,16,19,19,20,20,21,21,22,22,23,23,24,24,25,25,26,26,27,27,28,28,29,29,30,30,31,31,32,32,33,33,34,34,35,35,36,36,38,38,39,39,40,40,41,41,42,42,45,45,46,46,47,47,48,48,49,49,50,50,51,51,52,52,53,53,54,54,57,57,58,58],"right_children":[2,4,6,8,10,12,14,16,18,20,22,24,26,28,30,32,34,-1,-1,36,38,40,42,44,46,48,50,52,54,56,58,60,62,64,66,68,70,-1,72,74,76,78,80,-1,-1,82,84,86,88,90,92,94,96,98,100,-1,-1,102,104,-1,-1,-1,-1,-1,-1,-1,-1,-1,-1,-1,-1,-1,-1,-1,-1,-1,-1,-1,-1,-1,-1,-1,-1,-1,-1,-1,-1,-1,-1,-1,-1,-1,-1,-1,-1,-1,-1,-1,-1,-1,-1,-1,-1,-1,-1],"split_conditions":[1.2219501E1,4.0000005E0,1.6171976E1,4E0,2.0431387E1,1.7756145E1,3.2138947E1,1.2758432E1,6.815333E0,1.9826164E1,2.6932714E1,1.7192415E1,2.6999998E0,1.2719108E2,5E-1,1.0557001E1,1.3493999E1,1.2837455E1,2.7661126E0,6.382E0,9.965332E0,1.1859084E1,8.7E0,1.23945E1,2.1E0,1.0000001E0,1.7092415E1,9.923449E1,2.72695E1,3.413789E1,2.7346586E1,6.7382507E0,8.36758E0,1.4586633E2,1.4264361E1,5.5E0,6.7382507E0,1.1430167E1,1.0557001E1,4.329916E0,1.2102834E1,8.565334E0,1.06E1,9.563805E-1,-6.297328E0,1.7377832E1,6.5E0,1.9215015E2,1.1123425E2,1.5158522E1,2.7346586E1,9.367241E1,2.0340336E1,2.4E0,1.6808569E1,-4.1004488E-1,-1.8491572E0,2.4337101E1,2.7663252E1,3.740609E0,-1.1302888E-1,-3.7916305E0,7.300859E0,-4.1863146E0,2.3399794E0,4.0369287E0,7.622646E-1,-1.5288652E0,-6.2876263E0,5.7008896E0,-2.4400334E-1,-6.1303025E-1,1.4230924E0,4.467354E-2,-3.9662454E0,2.76324E0,-2.402092E0,2.8229928E0,1.4221191E-3,-3.6955144E0,-8.158463E-1,2.2411761E0,-4.315179E0,4.8637958E0,-5.558613E-1,1.3257576E-2,2.363903E0,6.557022E0,1.0242815E0,-1.4244778E-1,7.7828274E0,-1.9100229E0,7.386805E-1,-1.0896446E0,2.3644617E0,-1.4201349E-1,-3.7115586E0,6.5413964E-1,-8.63389E-1,1.6651156E0,-1.611765E0,-5.510769E0,-3.5542939E0,-3.0556297E-1,-2.3230348E0],"split_indices":[0,1,2,1,2,3,2,2,0,2,2,0,1,3,1,0,2,0,0,0,0,0,1,0,1,1,0,3,0,2,0,0,2,3,2,1,0,0,0,0,0,0,1,0,0,0,1,3,3,2,0,3,0,1,2,0,0,3,0,0,0,0,0,0,0,0,0,0,0,0,0,0,0,0,0,0,0,0,0,0,0,0,0,0,0,0,0,0,0,0,0,0,0,0,0,0,0,0,0,0,0,0,0,0,0],"split_type":[0,0,0,0,0,0,0,0,0,0,0,0,0,0,0,0,0,0,0,0,0,0,0,0,0,0,0,0,0,0,0,0,0,0,0,0,0,0,0,0,0,0,0,0,0,0,0,0,0,0,0,0,0,0,0,0,0,0,0,0,0,0,0,0,0,0,0,0,0,0,0,0,0,0,0,0,0,0,0,0,0,0,0,0,0,0,0,0,0,0,0,0,0,0,0,0,0,0,0,0,0,0,0,0,0],"sum_hessian":[2.344E3,8.06E2,1.538E3,6.9E2,1.16E2,5.37E2,1.001E3,6.87E2,3E0,6.6E1,5E1,2.3E1,5.14E2,9.61E2,4E1,1.44E2,5.43E2,2E0,1E0,6.1E1,5E0,3.7E1,1.3E1,8E0,1.5E1,3.65E2,1.49E2,4.23E2,5.38E2,9E0,3.1E1,1.25E2,1.9E1,4E1,5.03E2,1E1,5.1E1,3E0,2E0,3.5E1,2E0,7E0,6E0,1E0,7E0,1.2E1,3E0,3.2E2,4.5E1,1.8E1,1.31E2,3.29E2,9.4E1,3.76E2,1.62E2,2E0,7E0,2.3E1,8E0,6.7E1,5.8E1,2E0,1.7E1,2.8E1,1.2E1,4.9E1,4.54E2,4E0,6E0,5E0,4.6E1,1E0,1E0,2E0,3.3E1,1E0,1E0,5E0,2E0,2E0,4E0,3E0,9E0,2E0,1E0,2.59E2,6.1E1,2.2E1,2.3E1,1.2E1,6E0,9.6E1,3.5E1,3.1E2,1.9E1,2.4E1,7E1,2.31E2,1.45E2,1.2E1,1.5E2,5E0,1.8E1,1E0,7E0],"tree_param":{"num_deleted":"0","num_feature":"4","num_nodes":"105","size_leaf_vector":"1"}},{"base_weights":[2.676924E-2,2.132965E0,-1.1944169E0,3.3570602E0,-9.7614825E-1,1.7209318E0,-2.0223818E0,-1.3532735E0,4.368415E0,8.512202E0,-1.6793317E0,-1.6362793E1,2.2806702E0,-2.7544665E0,5.013821E-1,-5.9345275E-1,-6.402049E0,9.374121E0,2.697154E0,-1.3308487E1,1.4138671E1,-3.6939064E-1,-8.219316E0,-2.0384493E1,-1.8399811E-1,-5.658741E0,3.1824756E0,-6.7786818E0,-2.3412588E0,2.3550544E0,-6.4842825E0,7.940766E-1,-5.6954765E0,7.653044E0,1.0205551E1,1.5027198E0,1.01058445E1,1.8773965E0,-6.5749927E0,1.9147379E1,-3.1827166E0,-7.1706567E0,1.479757E0,-9.028859E0,3.2600694E0,-8.876697E0,-6.8222933E0,3.942627E-1,-4.7706187E-1,-7.0910525E0,6.0262837E0,2.7284405E0,1.873264E1,1.6879599E1,-7.876862E0,3.019793E0,-2.9047015E0,5.925703E0,-4.4224557E-1,-1.4186663E1,-1.3096749E0,-7.908249E-1,2.8866706E0,1.1001503E0,-3.5928779E0,2.5485215E0,-5.6668553E0,7.977341E-1,-5.287931E0,1.2410212E-1,5.2568164E0,3.2013083E0,1.0029698E1,-5.14635E0,-4.0754923E-1,3.758906E0,1.8216333E-1,2.6566968E0,-2.9314926E0,-4.0486774E0,5.4163743E-2,4.456671E0,-2.714804E0,-2.0804393E0,9.7833014E-1,9.428314E0,-5.4580826E-1,-3.0568602E0,8.789746E0,-3.199238E0,9.23914E-1,2.6943896E0,-4.6546862E-1,-5.397093E-1,-1.2200874E0,6.590977E-1,3.2522957E0,4.6395844E-1,-4.2207026E0,-4.889602E0,-1.823825E-1,-5.3336296E0,2.5728497E-1],"categories":[],"categories_nodes":[],"categories_segments":[],"categories_sizes":[],"default_left":[0,0,0,0,0,0,0,0,0,0,0,0,0,0,0,0,0,0,0,0,0,0,0,0,0,0,0,0,0,0,0,0,0,0,0,0,0,0,0,0,0,0,0,0,0,0,0,0,0,0,0,0,0,0,0,0,0,0,0,0,0,0,0,0,0,0,0,0,0,0,0,0,0,0,0,0,0,0,0,0,0,0,0,0,0,0,0,0,0,0,0,0,0,0,0,0,0,0,0,0,0,0,0],"id":6,"left_children":[1,3,5,7,9,11,13,15,17,19,21,23,25,27,29,31,-1,33,35,37,39,41,43,45,47,49,51,53,55,57,59,61,63,65,-1,67,69,-1,-1,71,-1,73,75,77,-1,79,-1,-1,-1,81,-1,83,85,87,89,91,93,95,97,99,101,-1,-1,-1,-1,-1,-1,-1,-1,-1,-1,-1,-1,-1,-1,-1,-1,-1,-1,-1,-1,-1,-1,-1,-1,-1,-1,-1,-1,-1,-1,-1,-1,-1,-1,-1,-1,-1,-1,-1,-1,-1,-1],"loss_changes":[6.0340225E3,3.2801143E3,3.5879824E3,2.9499512E3,1.6422753E3,3.367508E3,2.1390645E3,1.6578457E3,4.2329287E3,2.2753125E3,1.950238E3,6.4691187E2,2.3091455E3,1.4756938E3,3.3949941E3,7.619979E2,0E0,5.126342E3,3.3740552E3,8.1087897E2,1.9384939E3,2.412731E3,6.852583E2,1.5078613E1,8.410235E0,1.3593767E3,1.9822603E3,2.2893867E3,2.4705986E3,2.0701729E3,2.1735435E3,2.5993342E3,1.3964277E3,2.842415E3,0E0,7.368867E3,3.8026895E3,0E0,0E0,1.0962534E3,0E0,2.355831E3,1.448269E3,5.780537E2,0E0,1.2793988E2,0E0,0E0,0E0,1.509727E3,0E0,1.4689834E3,2.1444517E3,1.643291E3,2.4759521E3,2.1396035E3,9.410674E2,1.644E3,3.192522E3,6.210171E2,1.2288201E3,0E0,0E0,0E0,0E0,0E0,0E0,0E0,0E0,0E0,0E0,0E0,0E0,0E0,0E0,0E0,0E0,0E0,0E0,0E0,0E0,0E0,0E0,0E0,0E0,0E0,0E0,0E0,0E0,0E0,0E0,0E0,0E0,0E0,0E0,0E0,0E0,0E0,0E0,0E0,0E0,0E0,0E0],"parents":[2147483647,0,0,1,1,2,2,3,3,4,4,5,5,6,6,7,7,8,8,9,9,10,10,11,11,12,12,13,13,14,14,15,15,17,17,18,18,19,19,20,20,21,21,22,22,23,23,24,24,25,25,26,26,27,27,28,28,29,29,30,30,31,31,32,32,33,33,35,35,36,36,39,39,41,41,42,42,43,43,45,45,49,49,51,51,52,52,53,53,54,54,55,55,56,56,57,57,58,58,59,59,60,60],"right_children":[2,4,6,8,10,12,14,16,18,20,22,24,26,28,30,32,-1,34,36,38,40,42,44,46,48,50,52,54,56,58,60,62,64,66,-1,68,70,-1,-1,72,-1,74,76,78,-1,80,-1,-1,-1,82,-1,84,86,88,90,92,94,96,98,100,102,-1,-1,-1,-1,-1,-1,-1,-1,-1,-1,-1,-1,-1,-1,-1,-1,-1,-1,-1,-1,-1,-1,-1,-1,-1,-1,-1,-1,-1,-1,-1,-1,-1,-1,-1,-1,-1,-1,-1,-1,-1,-1],"split_conditions":[1.2982001E1,8.000001E-1,1.4685176E1,3.3570006E0,1.2261158E1,1.3525752E1,2.003712E2,3.544923E2,5.7903333E0,9.47012E0,1.29E1,1.4133153E1,9.83268E0,1.5517629E1,3.4120178E2,3.3416608E2,-6.402049E0,3.533047E2,2.3224882E1,6.909085E0,3.2088892E2,1.6E0,3.4365033E2,1.08955765E1,1E-1,2.7663252E1,1.4618837E1,1.343617E1,1.6171976E1,2.2275751E1,3.5009155E2,3.1499988E2,2.1695E0,3.5009155E2,1.0205551E1,3.5009155E2,9.046584E0,1.8773965E0,-6.5749927E0,1.0509509E2,-3.1827166E0,5.863678E1,1.7000002E0,1.1934711E0,3.2600694E0,1.3182E1,-6.8222933E0,3.942627E-1,-4.7706187E-1,1.528825E1,6.0262837E0,1.8304514E1,2.1111166E1,1.3182E1,1.4393129E2,9.623349E1,5E-1,3.0525507E2,3.1499988E2,2.3584085E1,1.3919499E1,-7.908249E-1,2.8866706E0,1.1001503E0,-3.5928779E0,2.5485215E0,-5.6668553E0,7.977341E-1,-5.287931E0,1.2410212E-1,5.2568164E0,3.2013083E0,1.0029698E1,-5.14635E0,-4.0754923E-1,3.758906E0,1.8216333E-1,2.6566968E0,-2.9314926E0,-4.0486774E0,5.4163743E-2,4.456671E0,-2.714804E0,-2.0804393E0,9.7833014E-1,9.428314E0,-5.4580826E-1,-3.0568602E0,8.789746E0,-3.199238E0,9.23914E-1,2.6943896E0,-4.6546862E-1,-5.397093E-1,-1.2200874E0,6.590977E-1,3.2522957E0,4.6395844E-1,-4.2207026E0,-4.889602E0,-1.823825E-1,-5.3336296E0,2.5728497E-1],"split_indices":[0,1,2,0,2,0,3,3,0,2,1,2,2,2,3,3,0,3,2,0,3,1,3,2,1,0,2,0,2,0,3,3,0,3,0,3,0,0,0,3,0,3,1,3,0,0,0,0,0,0,0,3,0,0,3,3,1,3,3,0,0,0,0,0,0,0,0,0,0,0,0,0,0,0,0,0,0,0,0,0,0,0,0,0,0,0,0,0,0,0,0,0,0,0,0,0,0,0,0,0,0,0,0],"split_type":[0,0,0,0,0,0,0,0,0,0,0,0,0,0,0,0,0,0,0,0,0,0,0,0,0,0,0,0,0,0,0,0,0,0,0,0,0,0,0,0,0,0,0,0,0,0,0,0,0,0,0,0,0,0,0,0,0,0,0,0,0,0,0,0,0,0,0,0,0,0,0,0,0,0,0,0,0,0,0,0,0,0,0,0,0,0,0,0,0,0,0,0,0,0,0,0,0,0,0,0,0,0,0],"sum_hessian":[2.344E3,8.6E2,1.484E3,6.17E2,2.43E2,3.28E2,1.156E3,1.09E2,5.08E2,1.6E1,2.27E2,9E0,3.19E2,8.96E2,2.6E2,1.06E2,3E0,1.26E2,3.82E2,3E0,1.3E1,1.9E2,3.7E1,7E0,2E0,3.2E1,2.87E2,8.2E1,8.14E2,2.06E2,5.4E1,8.4E1,2.2E1,1.19E2,7E0,3.3E2,5.2E1,1E0,2E0,1.1E1,2E0,4E1,1.5E2,3.6E1,1E0,2E0,5E0,1E0,1E0,3.1E1,1E0,2.8E2,7E0,3E0,7.9E1,7.7E1,7.37E2,9E1,1.16E2,2.1E1,3.3E1,6.1E1,2.3E1,9E0,1.3E1,1.16E2,3E0,3.12E2,1.8E1,2.3E1,2.9E1,8E0,3E0,1.4E1,2.6E1,1E1,1.4E2,1E0,3.5E1,1E0,1E0,2E0,2.9E1,1.4E1,2.66E2,4E0,3E0,1E0,2E0,6.3E1,1.6E1,3.3E1,4.4E1,3.79E2,3.58E2,5.2E1,3.8E1,1.02E2,1.4E1,1.8E1,3E0,3E0,3E1],"tree_param":{"num_deleted":"0","num_feature":"4","num_nodes":"103","size_leaf_vector":"1"}},{"base_weights":[2.1502895E-2,9.5243895E-1,-1.4292377E0,7.1733946E-1,9.539439E0,-4.6102476E-1,-3.520991E0,1.0140907E0,-5.3565507E0,-1.0694183E1,1.6187605E1,1.9534881E0,-1.4892955E0,-2.961911E0,-7.936014E0,-2.4588272E-1,2.332685E0,2.0603666E0,-1.1025038E1,-1.1235306E0,-5.0662093E0,6.438733E0,2.4857304E1,8.175923E-1,1.6012651E1,3.4427776E0,-2.1863878E0,-6.298401E0,-1.9242839E0,-9.530654E0,-4.872259E0,-4.335052E-2,-1.9711714E1,2.138909E1,2.1813443E0,-1.8779215E0,2.7144148E1,-1.7163906E1,-5.530476E0,1.9410851E0,-4.639555E0,2.3705963E1,-4.5654783E0,3.1224636E1,-4.590206E-1,5.832521E0,-7.115164E-1,6.372181E0,3.209106E1,-4.187343E0,7.5861006E0,-5.65878E0,-1.9629741E0,-1.0682076E1,3.9540436E0,1.3913111E1,-2.6604738E0,-1.6738611E0,-1.0310638E1,-6.220172E0,-2.8441238E-1,4.0211205E0,-6.1370973E-2,-8.912435E0,6.0400043E0,9.290264E0,-2.5387106E0,-1.4387239E0,7.517231E-1,8.47306E-1,-3.8433254E0,9.652039E0,1.8084309E0,-6.2955446E0,-2.612134E0,1.3525177E0,-3.2615817E0,-2.8401475E0,1.4764881E0,8.625312E0,2.7231622E0,3.6005947E-1,-5.5256376E0,1.0976146E1,3.4058454E0,-2.0756166E0,2.8380125E0,1.2628154E0,1.0613699E1,-2.0098538E0,3.8743743E-1,-1.1665038E0,6.8205175E0,1.1630447E1,8.0740017E-1,1.7295902E0,-3.3908641E0,5.7061863E0,1.0919362E0,-1.2825726E0,-1.11685984E-1,-1.2150931E0,-3.624656E0,5.37219E0,6.558052E-2,8.371306E0,6.800288E-1,-1.320622E0,5.518642E-1,-6.2408185E-1,-1.2915574E-1,-2.8054333E-1,-3.242139E0,-2.562167E0,-9.7494704E-1,4.0694848E-1,-3.8506395E-1],"categories":[],"categories_nodes":[],"categories_segments":[],"categories_sizes":[],"default_left":[0,0,0,0,0,0,0,0,0,0,0,0,0,0,0,0,0,0,0,0,0,0,0,0,0,0,0,0,0,0,0,0,0,0,0,0,0,0,0,0,0,0,0,0,0,0,0,0,0,0,0,0,0,0,0,0,0,0,0,0,0,0,0,0,0,0,0,0,0,0,0,0,0,0,0,0,0,0,0,0,0,0,0,0,0,0,0,0,0,0,0,0,0,0,0,0,0,0,0,0,0,0,0,0,0,0,0,0,0,0,0,0,0,0,0,0,0],"id":7,"left_children":[1,3,5,7,9,11,13,15,17,19,21,23,25,27,29,31,33,35,37,39,-1,41,43,45,47,49,51,53,55,57,59,61,63,65,67,69,71,73,75,-1,77,79,81,83,85,87,89,91,93,95,97,-1,99,101,103,105,107,109,111,113,115,-1,-1,-1,-1,-1,-1,-1,-1,-1,-1,-1,-1,-1,-1,-1,-1,-1,-1,-1,-1,-1,-1,-1,-1,-1,-1,-1,-1,-1,-1,-1,-1,-1,-1,-1,-1,-1,-1,-1,-1,-1,-1,-1,-1,-1,-1,-1,-1,-1,-1,-1,-1,-1,-1,-1,-1],"loss_changes":[3.1683933E3,2.8780212E3,1.8555427E3,2.51442E3,5.2847393E3,1.5620907E3,6.923159E2,2.2069043E3,2.7554917E3,5.737543E2,2.2910234E3,2.98922E3,1.5237339E3,8.845464E2,1.09902954E2,2.6800166E3,1.8250647E3,2.9158022E3,1.1531001E3,1.6351942E2,0E0,2.958413E3,2.432295E3,1.3461149E3,1.9655579E3,1.7705386E3,1.4048171E3,2.783784E3,2.357222E3,1.0530493E2,7.862314E1,1.4639275E3,3.3862737E3,1.6917134E3,1.4718855E3,1.3728622E3,2.308518E2,3.6664258E2,1.1750822E3,0E0,2.312242E2,1.8183984E2,8.208435E2,8.633877E2,3.2174808E2,1.8173527E3,1.6278156E3,1.7673193E3,8.7718604E2,1.4815327E3,1.5552402E3,0E0,1.4071188E3,3.5032715E2,9.863953E2,1.4032697E3,1.5050092E3,6.2032795E-1,7.368103E1,4.1168182E1,8.299069E0,0E0,0E0,0E0,0E0,0E0,0E0,0E0,0E0,0E0,0E0,0E0,0E0,0E0,0E0,0E0,0E0,0E0,0E0,0E0,0E0,0E0,0E0,0E0,0E0,0E0,0E0,0E0,0E0,0E0,0E0,0E0,0E0,0E0,0E0,0E0,0E0,0E0,0E0,0E0,0E0,0E0,0E0,0E0,0E0,0E0,0E0,0E0,0E0,0E0,0E0,0E0,0E0,0E0,0E0,0E0,0E0],"parents":[2147483647,0,0,1,1,2,2,3,3,4,4,5,5,6,6,7,7,8,8,9,9,10,10,11,11,12,12,13,13,14,14,15,15,16,16,17,17,18,18,19,19,21,21,22,22,23,23,24,24,25,25,26,26,27,27,28,28,29,29,30,30,31,31,32,32,33,33,34,34,35,35,36,36,37,37,38,38,40,40,41,41,42,42,43,43,44,44,45,45,46,46,47,47,48,48,49,49,50,50,52,52,53,53,54,54,55,55,56,56,57,57,58,58,59,59,60,60],"right_children":[2,4,6,8,10,12,14,16,18,20,22,24,26,28,30,32,34,36,38,40,-1,42,44,46,48,50,52,54,56,58,60,62,64,66,68,70,72,74,76,-1,78,80,82,84,86,88,90,92,94,96,98,-1,100,102,104,106,108,110,112,114,116,-1,-1,-1,-1,-1,-1,-1,-1,-1,-1,-1,-1,-1,-1,-1,-1,-1,-1,-1,-1,-1,-1,-1,-1,-1,-1,-1,-1,-1,-1,-1,-1,-1,-1,-1,-1,-1,-1,-1,-1,-1,-1,-1,-1,-1,-1,-1,-1,-1,-1,-1,-1,-1,-1,-1,-1],"split_conditions":[2.0340336E1,1.976325E1,2.0073025E1,1.880075E1,3.3635063E1,1E-1,3.2138947E1,1.3557863E2,1.6981165E1,1.7447933E1,1.6746773E1,2.1989206E2,1.1631956E1,2.1288757E1,2.6684084E1,1.3276376E2,1.3661143E2,1.6418526E1,1.967195E1,9.227524E0,-5.0662093E0,2.007992E1,2.4195107E1,8.791119E1,1.7238699E1,9.83268E0,1.1966953E1,2.8588251E1,2.1602999E1,2.0809084E1,3.8E1,1.1934711E0,1.4E0,1.7192415E1,-7.008337E-2,1.5215058E1,1.9607E1,4E-1,2.141319E1,1.9410851E0,1.710284E1,1.4685176E1,1.7108788E2,4E-1,2E-1,2.939242E1,2.3171583E1,2.3584085E1,2.3802834E1,8.707238E0,8.261405E1,-5.65878E0,1.1010335E2,2.0380579E1,2.9507006E1,2.26445E1,1.844899E2,3E-1,1E-1,2.8094498E1,2.72695E1,4.0211205E0,-6.1370973E-2,-8.912435E0,6.0400043E0,9.290264E0,-2.5387106E0,-1.4387239E0,7.517231E-1,8.47306E-1,-3.8433254E0,9.652039E0,1.8084309E0,-6.2955446E0,-2.612134E0,1.3525177E0,-3.2615817E0,-2.8401475E0,1.4764881E0,8.625312E0,2.7231622E0,3.6005947E-1,-5.5256376E0,1.0976146E1,3.4058454E0,-2.0756166E0,2.8380125E0,1.2628154E0,1.0613699E1,-2.0098538E0,3.8743743E-1,-1.1665038E0,6.8205175E0,1.1630447E1,8.0740017E-1,1.7295902E0,-3.3908641E0,5.7061863E0,1.0919362E0,-1.2825726E0,-1.11685984E-1,-1.2150931E0,-3.624656E0,5.37219E0,6.558052E-2,8.371306E0,6.800288E-1,-1.320622E0,5.518642E-1,-6.2408185E-1,-1.2915574E-1,-2.8054333E-1,-3.242139E0,-2.562167E0,-9.7494704E-1,4.0694848E-1,-3.8506395E-1],"split_indices":[0,0,2,0,3,1,2,3,2,2,2,3,2,2,0,3,3,2,2,2,0,0,2,3,2,2,2,0,2,0,1,3,1,0,0,2,0,1,2,0,2,2,3,1,1,0,0,0,0,2,3,0,3,2,0,0,3,1,1,0,0,0,0,0,0,0,0,0,0,0,0,0,0,0,0,0,0,0,0,0,0,0,0,0,0,0,0,0,0,0,0,0,0,0,0,0,0,0,0,0,0,0,0,0,0,0,0,0,0,0,0,0,0,0,0,0,0],"split_type":[0,0,0,0,0,0,0,0,0,0,0,0,0,0,0,0,0,0,0,0,0,0,0,0,0,0,0,0,0,0,0,0,0,0,0,0,0,0,0,0,0,0,0,0,0,0,0,0,0,0,0,0,0,0,0,0,0,0,0,0,0,0,0,0,0,0,0,0,0,0,0,0,0,0,0,0,0,0,0,0,0,0,0,0,0,0,0,0,0,0,0,0,0,0,0,0,0,0,0,0,0,0,0,0,0,0,0,0,0,0,0,0,0,0,0,0,0],"sum_hessian":[2.344E3,1.428E3,9.16E2,1.391E3,3.7E1,6.27E2,2.89E2,1.327E3,6.4E1,9E0,2.8E1,1.87E2,4.4E2,2.58E2,3.1E1,6.79E2,6.48E2,2.8E1,3.6E1,4E0,5E0,1.4E1,1.4E1,1.74E2,1.3E1,5.4E1,3.86E2,6E1,1.98E2,1.9E1,1.2E1,6.73E2,6E0,4E0,6.44E2,2.5E1,3E0,1.6E1,2E1,1E0,3E0,5E0,9E0,1.1E1,3E0,4E1,1.34E2,9E0,4E0,1.9E1,3.5E1,4E0,3.82E2,4.2E1,1.8E1,8E0,1.9E2,2E0,1.7E1,9E0,3E0,7E0,6.66E2,5E0,1E0,3E0,1E0,2.8E1,6.16E2,1.8E1,7E0,2E0,1E0,1E1,6E0,7E0,1.3E1,2E0,1E0,3E0,2E0,7E0,2E0,8E0,3E0,2E0,1E0,3.9E1,1E0,3.3E1,1.01E2,6E0,3E0,3E0,1E0,8E0,1.1E1,8E0,2.7E1,1.55E2,2.27E2,8E0,3.4E1,3E0,1.5E1,3E0,5E0,1.37E2,5.3E1,1E0,1E0,1E0,1.6E1,4E0,5E0,1E0,2E0],"tree_param":{"num_deleted":"0","num_feature":"4","num_nodes":"117","size_leaf_vector":"1"}},{"base_weights":[3.601436E-2,1.6654006E0,-5.871487E-1,3.5645082E0,7.4882406E-1,-1.5758481E0,4.354079E-1,1.8124002E1,2.5170465E0,-1.2716883E1,1.142872E0,-8.804779E0,-1.0053132E0,1.292096E1,2.222289E-1,-4.804065E0,2.5148058E1,-1.2433339E1,5.2607665E0,5.464834E0,3.2939845E-1,7.812139E0,-9.786807E0,1.08615055E1,-1.3231082E0,1.8643906E1,-1.1091217E0,2.8784482E0,-5.006719E-1,-2.2046907E0,2.877042E1,-1.6854305E1,5.1320167E0,1.1011677E1,3.8695655E0,1.3295218E1,-3.4802887E0,-1.5092751E0,3.0116658E0,-1.3626857E1,-5.2365246E0,2.9640715E1,-2.9749856E0,-9.607433E0,-1.0250951E0,5.825897E0,2.6218262E1,6.92997E-2,-8.7342113E-1,4.7685204E0,-7.728563E0,-1.6542667E1,-1.9720553E-1,1.0385754E1,4.9020007E-1,-3.0782428E0,-7.7155414E0,9.011109E0,-1.2074971E0,3.3016375E-1,4.0591693E0,1.1409329E1,2.47253E0,-4.492373E0,6.5048885E-1,-1.2520299E0,6.641352E-1,2.0041142E0,-2.5394338E-1,-2.7822943E0,-6.1412845E0,1.417975E0,-2.7222953E0,1.416327E0,1.08258505E1,-4.3707285E0,2.7132366E0,2.9070437E0,-3.7270162E0,2.991437E-1,-7.1040845E-1,-2.6246028E0,5.5375514E0,1.1242233E1,7.413136E-1,3.5873413E-1,-4.9652138E-1,1.0919689E0,6.6137614E0,3.968342E-1,-3.6983168E0,-4.9086E-2,-5.40504E0,2.4447374E0,-1.6561371E-1],"categories":[],"categories_nodes":[],"categories_segments":[],"categories_sizes":[],"default_left":[0,0,0,0,0,0,0,0,0,0,0,0,0,0,0,0,0,0,0,0,0,0,0,0,0,0,0,0,0,0,0,0,0,0,0,0,0,0,0,0,0,0,0,0,0,0,0,0,0,0,0,0,0,0,0,0,0,0,0,0,0,0,0,0,0,0,0,0,0,0,0,0,0,0,0,0,0,0,0,0,0,0,0,0,0,0,0,0,0,0,0,0,0,0,0],"id":8,"left_children":[1,3,5,7,9,11,13,15,17,-1,19,21,23,25,27,-1,29,31,33,35,37,-1,39,41,43,45,47,49,51,-1,53,55,57,-1,59,61,63,65,67,69,71,73,75,77,79,81,83,85,-1,87,89,91,93,-1,-1,-1,-1,-1,-1,-1,-1,-1,-1,-1,-1,-1,-1,-1,-1,-1,-1,-1,-1,-1,-1,-1,-1,-1,-1,-1,-1,-1,-1,-1,-1,-1,-1,-1,-1,-1,-1,-1,-1,-1,-1],"loss_changes":[2.3820283E3,1.1270305E3,1.7163552E3,3.1722393E3,7.510836E3,3.5504695E3,2.2196128E3,3.759687E3,8.1873027E3,0E0,1.5310896E3,2.4106484E3,3.0351147E3,1.1447859E3,1.5798318E3,0E0,1.6240254E3,2.4938281E3,7.207303E3,4.87929E3,1.819453E3,0E0,1.0119883E3,5.544786E3,1.9183135E3,8.1813696E2,1.0820997E1,3.5653047E3,3.1464673E3,0E0,1.68929E3,1.1972539E3,1.7172864E3,0E0,4.3188516E3,4.3116157E3,2.1750425E3,2.1814597E3,2.1288188E3,7.9318945E2,1.1899807E3,1.2751982E3,1.9433258E3,1.5875935E3,2.0527402E3,1.0820616E3,1.5111699E3,9.748984E0,0E0,2.844701E3,1.1402784E3,2.8679004E2,1.8880847E3,0E0,0E0,0E0,0E0,0E0,0E0,0E0,0E0,0E0,0E0,0E0,0E0,0E0,0E0,0E0,0E0,0E0,0E0,0E0,0E0,0E0,0E0,0E0,0E0,0E0,0E0,0E0,0E0,0E0,0E0,0E0,0E0,0E0,0E0,0E0,0E0,0E0,0E0,0E0,0E0,0E0,0E0],"parents":[2147483647,0,0,1,1,2,2,3,3,4,4,5,5,6,6,7,7,8,8,10,10,11,11,12,12,13,13,14,14,16,16,17,17,18,18,19,19,20,20,22,22,23,23,24,24,25,25,26,26,27,27,28,28,30,30,31,31,32,32,34,34,35,35,36,36,37,37,38,38,39,39,40,40,41,41,42,42,43,43,44,44,45,45,46,46,47,47,49,49,50,50,51,51,52,52],"right_children":[2,4,6,8,10,12,14,16,18,-1,20,22,24,26,28,-1,30,32,34,36,38,-1,40,42,44,46,48,50,52,-1,54,56,58,-1,60,62,64,66,68,70,72,74,76,78,80,82,84,86,-1,88,90,92,94,-1,-1,-1,-1,-1,-1,-1,-1,-1,-1,-1,-1,-1,-1,-1,-1,-1,-1,-1,-1,-1,-1,-1,-1,-1,-1,-1,-1,-1,-1,-1,-1,-1,-1,-1,-1,-1,-1,-1,-1,-1,-1],"split_conditions":[1.4917212E1,9.219501E0,1.4393129E2,1.6672632E1,9.417418E0,1.5517629E1,1.4586633E2,1.0163227E1,3.9627464E1,-1.2716883E1,4.358564E1,4.329916E0,1.5629972E1,2.5796583E1,7.8549156E0,-4.804065E0,4.5195007E0,1.370839E1,4.4251705E1,1.29249525E1,1.3207634E1,7.812139E0,4E-1,6.8693275E1,4.640333E0,1.4000001E0,2.5812277E1,2.800837E1,8.371584E0,-2.2046907E0,1.5E0,3.2881817E1,4.43825E0,1.1011677E1,7.9528337E0,1.1311168E1,1.7192415E1,2.26445E1,2.134242E1,1.5273505E1,2.4E0,7.3257504E0,1.7521584E1,1.7294992E1,1.6027834E1,1.9386593E1,2.0265795E1,1.0000001E0,-8.7342113E-1,7.4840846E0,6.4658326E-1,1.5379206E1,1.5379206E1,1.0385754E1,4.9020007E-1,-3.0782428E0,-7.7155414E0,9.011109E0,-1.2074971E0,3.3016375E-1,4.0591693E0,1.1409329E1,2.47253E0,-4.492373E0,6.5048885E-1,-1.2520299E0,6.641352E-1,2.0041142E0,-2.5394338E-1,-2.7822943E0,-6.1412845E0,1.417975E0,-2.7222953E0,1.416327E0,1.08258505E1,-4.3707285E0,2.7132366E0,2.9070437E0,-3.7270162E0,2.991437E-1,-7.1040845E-1,-2.6246028E0,5.5375514E0,1.1242233E1,7.413136E-1,3.5873413E-1,-4.9652138E-1,1.0919689E0,6.6137614E0,3.968342E-1,-3.6983168E0,-4.9086E-2,-5.40504E0,2.4447374E0,-1.6561371E-1],"split_indices":[2,0,3,3,0,2,3,2,3,0,3,0,2,0,0,0,0,2,3,2,2,0,1,3,0,1,2,2,0,0,1,3,0,0,0,0,0,0,0,2,1,0,0,2,0,2,2,1,0,0,0,2,2,0,0,0,0,0,0,0,0,0,0,0,0,0,0,0,0,0,0,0,0,0,0,0,0,0,0,0,0,0,0,0,0,0,0,0,0,0,0,0,0,0,0],"split_type":[0,0,0,0,0,0,0,0,0,0,0,0,0,0,0,0,0,0,0,0,0,0,0,0,0,0,0,0,0,0,0,0,0,0,0,0,0,0,0,0,0,0,0,0,0,0,0,0,0,0,0,0,0,0,0,0,0,0,0,0,0,0,0,0,0,0,0,0,0,0,0,0,0,0,0,0,0,0,0,0,0,0,0,0,0,0,0,0,0,0,0,0,0,0,0],"sum_hessian":[2.344E3,6.48E2,1.696E3,2.1E2,4.38E2,8.62E2,8.34E2,1.3E1,1.97E2,3E0,4.35E2,6.2E1,8E2,1.3E1,8.21E2,2E0,1.1E1,3E1,1.67E2,6.8E1,3.67E2,1E0,6.1E1,2E1,7.8E2,9E0,4E0,1.75E2,6.46E2,1E0,1E1,2.4E1,6E0,6E0,1.61E2,3.6E1,3.2E1,2.18E2,1.49E2,3.2E1,2.9E1,8E0,1.2E1,2.6E1,7.54E2,4E0,5E0,3E0,1E0,1.49E2,2.6E1,1.1E1,6.35E2,8E0,2E0,1.5E1,9E0,1E0,5E0,1.26E2,3.5E1,5E0,3.1E1,1E1,2.2E1,1.27E2,9.1E1,7.6E1,7.3E1,2.1E1,1.1E1,8E0,2.1E1,2E0,6E0,6E0,6E0,3E0,2.3E1,3.01E2,4.53E2,2E0,2E0,3E0,2E0,2E0,1E0,1.41E2,8E0,9E0,1.7E1,1E0,1E1,2.5E1,6.1E2],"tree_param":{"num_deleted":"0","num_feature":"4","num_nodes":"95","size_leaf_vector":"1"}},{"base_weights":[4.090943E-2,3.198963E-1,-2.5763166E0,8.7356955E-2,3.3300943E0,-2.8306487E0,5.181772E0,4.549996E-1,-3.503161E0,6.846581E0,-6.35714E0,6.1737523E0,-3.3694532E0,8.650212E-1,-2.1538005E0,-2.4039667E1,-2.7912385E0,-1.0208391E1,7.9082623E0,-1.4400732E1,-5.9564907E-2,-1.9775349E0,1.0201166E1,-7.0536804E0,-1.9360839E0,1.1313732E0,-2.3073368E0,4.392844E0,-2.7606423E0,-7.8918447E0,-1.9060891E0,-3.608523E0,1.7689356E1,-1.3344746E1,-1.5783361E0,9.768301E0,6.8740954E0,-4.818291E0,-4.5746603E0,-4.942367E0,1.3704154E0,-3.7616396E0,5.8487296E0,-8.310661E0,5.434761E0,-4.5130315E-1,-4.7570567E0,2.852194E-1,3.3649545E0,-3.0516748E0,-7.054437E-2,2.769431E0,-2.5352952E-1,-1.9913752E0,-3.7791184E-1,2.2381024E0,-1.5095545E0,6.4931583E0,2.793754E0,-2.992487E-1,-4.8546553E0,-6.607384E-1,-4.9512867E-2,-1.6566125E0,2.3506505E0,-1.6830121E0,-2.2027817E-1,5.500517E0,-7.0234895E-2,3.2873836E0,-2.1680032E-1,-2.0298934E0,-4.5841794E0,-2.9644547E0,4.6689835E0,-1.2405274E0,7.2437686E-1,-2.4627957E0,-1.6864495E-1],"categories":[],"categories_nodes":[],"categories_segments":[],"categories_sizes":[],"default_left":[0,0,0,0,0,0,0,0,0,0,0,0,0,0,0,0,0,0,0,0,0,0,0,0,0,0,0,0,0,0,0,0,0,0,0,0,0,0,0,0,0,0,0,0,0,0,0,0,0,0,0,0,0,0,0,0,0,0,0,0,0,0,0,0,0,0,0,0,0,0,0,0,0,0,0,0,0,0,0],"id":9,"left_children":[1,3,5,7,9,11,-1,13,15,17,19,21,23,25,27,29,31,33,35,37,39,41,-1,43,45,47,49,51,53,-1,-1,55,57,59,61,-1,63,-1,65,-1,67,-1,69,71,73,75,77,-1,-1,-1,-1,-1,-1,-1,-1,-1,-1,-1,-1,-1,-1,-1,-1,-1,-1,-1,-1,-1,-1,-1,-1,-1,-1,-1,-1,-1,-1,-1,-1],"loss_changes":[1.7130769E3,1.4836868E3,1.1897872E3,2.600728E3,5.221409E3,1.1075634E3,0E0,1.9133534E3,2.6084326E3,2.108708E3,2.0760024E3,3.0163125E3,1.105885E3,1.3080797E3,9.775121E2,7.337109E1,3.0432803E3,1.6840588E2,2.4786484E3,2.2017114E2,5.859317E2,9.825437E2,0E0,9.7133276E2,6.428861E2,2.5872217E3,1.953318E3,5.400311E2,1.2893961E3,0E0,0E0,2.7473293E3,3.0324951E1,1.5903125E2,2.2827148E0,0E0,1.270793E3,0E0,1.1785851E1,0E0,6.303595E2,0E0,2.4294171E2,4.7786353E2,1.0845758E3,1.0868334E3,7.629269E2,0E0,0E0,0E0,0E0,0E0,0E0,0E0,0E0,0E0,0E0,0E0,0E0,0E0,0E0,0E0,0E0,0E0,0E0,0E0,0E0,0E0,0E0,0E0,0E0,0E0,0E0,0E0,0E0,0E0,0E0,0E0,0E0],"parents":[2147483647,0,0,1,1,2,2,3,3,4,4,5,5,7,7,8,8,9,9,10,10,11,11,12,12,13,13,14,14,15,15,16,16,17,17,18,18,19,19,20,20,21,21,23,23,24,24,25,25,26,26,27,27,28,28,31,31,32,32,33,33,34,34,36,36,38,38,40,40,42,42,43,43,44,44,45,45,46,46],"right_children":[2,4,6,8,10,12,-1,14,16,18,20,22,24,26,28,30,32,34,36,38,40,42,-1,44,46,48,50,52,54,-1,-1,56,58,60,62,-1,64,-1,66,-1,68,-1,70,72,74,76,78,-1,-1,-1,-1,-1,-1,-1,-1,-1,-1,-1,-1,-1,-1,-1,-1,-1,-1,-1,-1,-1,-1,-1,-1,-1,-1,-1,-1,-1,-1,-1,-1],"split_conditions":[1.1800001E1,6.8999996E0,3.0315336E1,3.3999999E0,2.2862125E1,1.1367109E1,5.181772E0,2.7444502E1,3.5999997E0,6.382E0,2.6717722E1,2.4468228E2,1.6808569E1,2.6052162E1,1.3493999E1,1.6648668E1,2.939242E1,9.5E0,2.7771675E1,2.0532001E1,7.1000004E0,1.61E1,1.0201166E1,2.8094498E1,2.488408E1,2.5323128E1,2.6932714E1,2.8959085E1,2.8588251E1,-7.8918447E0,-1.9060891E0,6.815333E0,1.98E1,1.0808219E1,5.354917E0,9.768301E0,1.1212135E1,-4.818291E0,2.7663252E1,-4.942367E0,7.2999997E0,-3.7616396E0,2.2000002E1,2.4158743E2,1.2979984E1,7.911448E1,2.6850752E1,2.852194E-1,3.3649545E0,-3.0516748E0,-7.054437E-2,2.769431E0,-2.5352952E-1,-1.9913752E0,-3.7791184E-1,2.2381024E0,-1.5095545E0,6.4931583E0,2.793754E0,-2.992487E-1,-4.8546553E0,-6.607384E-1,-4.9512867E-2,-1.6566125E0,2.3506505E0,-1.6830121E0,-2.2027817E-1,5.500517E0,-7.0234895E-2,3.2873836E0,-2.1680032E-1,-2.0298934E0,-4.5841794E0,-2.9644547E0,4.6689835E0,-1.2405274E0,7.2437686E-1,-2.4627957E0,-1.6864495E-1],"split_indices":[1,1,0,1,2,2,0,0,1,0,2,3,2,2,2,0,0,1,3,0,1,1,0,0,0,2,2,0,0,0,0,0,2,3,0,0,2,0,0,0,1,0,1,3,2,3,0,0,0,0,0,0,0,0,0,0,0,0,0,0,0,0,0,0,0,0,0,0,0,0,0,0,0,0,0,0,0,0,0],"split_type":[0,0,0,0,0,0,0,0,0,0,0,0,0,0,0,0,0,0,0,0,0,0,0,0,0,0,0,0,0,0,0,0,0,0,0,0,0,0,0,0,0,0,0,0,0,0,0,0,0,0,0,0,0,0,0,0,0,0,0,0,0,0,0,0,0,0,0,0,0,0,0,0,0,0,0,0,0,0,0],"sum_hessian":[2.344E3,2.119E3,2.25E2,1.968E3,1.51E2,2.23E2,2E0,1.786E3,1.82E2,1.11E2,4E1,1.2E1,2.11E2,1.544E3,2.42E2,5E0,1.77E2,6E0,1.05E2,1.7E1,2.3E1,1E1,2E0,5.8E1,1.53E2,1.425E3,1.19E2,2E1,2.22E2,4E0,1E0,1.71E2,6E0,4E0,2E0,3E0,1.02E2,1.4E1,3E0,1E0,2.2E1,4E0,6E0,5.3E1,5E0,1.01E2,5.2E1,1.401E3,2.4E1,2.4E1,9.5E1,1E1,1E1,6.1E1,1.61E2,1.9E1,1.52E2,3E0,3E0,1E0,3E0,1E0,1E0,7E0,9.5E1,2E0,1E0,1E0,2.1E1,3E0,3E0,4.5E1,8E0,2E0,3E0,4.4E1,5.7E1,2.8E1,2.4E1],"tree_param":{"num_deleted":"0","num_feature":"4","num_nodes":"79","size_leaf_vector":"1"}},{"base_weights":[3.1150032E-2,1.2824339E-1,-4.617843E0,-3.5532498E-1,9.493645E-1,-1.4365664E1,-3.4051855E0,-8.71321E0,-2.6759043E-1,1.9628189E0,-9.2193425E-1,-6.0577064E0,-5.3655195E0,9.426817E0,-5.2920275E0,-3.2440345E0,-6.8827305E0,2.117136E0,-5.732103E-1,4.7406826E0,9.2657536E-1,-1.3926533E-1,-7.0410714E0,-2.4805493E0,-2.4541856E-1,3.3366456E0,1.4252186E-1,-1.1067682E1,-3.906524E0,-8.720389E0,8.54938E0,-1.4431885E0,6.637035E0,-1.1211307E1,-4.1144088E-1,-4.395714E0,5.372358E0,-1.2288487E1,1.3973792E0,7.030431E0,-7.1690506E-1,-9.472573E0,3.6908023E0,-6.3262486E-1,-4.2688518E0,2.9286525E0,-4.4419756E0,-3.4188359E0,2.7055368E0,1.0541016E0,-2.3084219E0,3.0671349E0,-1.1718595E0,-1.1457489E0,-5.7001348E0,3.1818116E0,-1.5526761E-1,1.1803201E0,3.9895124E0,3.6515088E0,-4.5318975E0,7.5632033E0,3.4448394E-1,-9.172345E-3,4.699184E0,-1.1797916E0,3.916487E-1,-5.9505615E0,-2.2306948E0,-2.7849789E0,2.220107E0,-5.3969425E-1,1.8575879E0,-1.1415268E0,-2.336906E0],"categories":[],"categories_nodes":[],"categories_segments":[],"categories_sizes":[],"default_left":[0,0,0,0,0,0,0,0,0,0,0,0,0,0,0,0,0,0,0,0,0,0,0,0,0,0,0,0,0,0,0,0,0,0,0,0,0,0,0,0,0,0,0,0,0,0,0,0,0,0,0,0,0,0,0,0,0,0,0,0,0,0,0,0,0,0,0,0,0,0,0,0,0,0,0],"id":10,"left_children":[1,3,5,7,9,11,13,15,17,19,21,23,-1,25,27,29,-1,31,33,35,37,39,41,-1,-1,-1,-1,43,45,47,-1,49,51,53,55,-1,57,59,61,63,65,67,69,-1,-1,71,73,-1,-1,-1,-1,-1,-1,-1,-1,-1,-1,-1,-1,-1,-1,-1,-1,-1,-1,-1,-1,-1,-1,-1,-1,-1,-1,-1,-1],"loss_changes":[1.0590933E3,9.1280005E2,5.184793E2,1.0587177E3,1.6176069E3,3.785266E1,1.1152131E3,1.0929059E3,1.0456122E3,1.5874417E3,1.4357971E3,2.7987144E1,0E0,8.577338E1,2.6884924E2,2.334476E3,0E0,2.6326245E3,2.1826743E3,1.9162361E3,2.5307393E3,1.110821E3,9.2217676E2,0E0,0E0,0E0,0E0,1.6827942E2,1.3378592E2,6.2488324E2,0E0,2.8779385E3,2.7626821E3,1.0214248E3,1.470435E3,0E0,1.6116812E3,1.1488169E3,2.2904153E3,1.2197047E3,1.6180022E3,4.4353345E2,4.0559546E2,0E0,0E0,5.742237E1,3.6455017E1,0E0,0E0,0E0,0E0,0E0,0E0,0E0,0E0,0E0,0E0,0E0,0E0,0E0,0E0,0E0,0E0,0E0,0E0,0E0,0E0,0E0,0E0,0E0,0E0,0E0,0E0,0E0,0E0],"parents":[2147483647,0,0,1,1,2,2,3,3,4,4,5,5,6,6,7,7,8,8,9,9,10,10,11,11,13,13,14,14,15,15,17,17,18,18,19,19,20,20,21,21,22,22,27,27,28,28,29,29,31,31,32,32,33,33,34,34,36,36,37,37,38,38,39,39,40,40,41,41,42,42,45,45,46,46],"right_children":[2,4,6,8,10,12,14,16,18,20,22,24,-1,26,28,30,-1,32,34,36,38,40,42,-1,-1,-1,-1,44,46,48,-1,50,52,54,56,-1,58,60,62,64,66,68,70,-1,-1,72,74,-1,-1,-1,-1,-1,-1,-1,-1,-1,-1,-1,-1,-1,-1,-1,-1,-1,-1,-1,-1,-1,-1,-1,-1,-1,-1,-1,-1],"split_conditions":[3.290014E1,1.7017017E2,3.2299163E0,3.040333E0,9.0000004E-1,-1.9055003E0,7.9528337E0,8.467654E1,1.6076561E1,1.4539945E1,3.5142273E2,3.099513E2,-5.3655195E0,3.7490158E1,1.6300749E1,7.450066E1,-6.8827305E0,1.0808219E1,1.7756145E1,7.9932966E0,1.484318E1,1.7641968E2,1.3E1,-2.4805493E0,-2.4541856E-1,3.3366456E0,1.4252186E-1,3.9999998E0,1.6890333E1,2.4458813E1,8.54938E0,2.0380579E1,1.9148668E1,1.7238699E1,3.7403336E0,-4.395714E0,1.4081478E1,6.4658326E-1,1.4917212E1,1.7269432E2,2.4158743E2,3.533047E2,1.6215992E1,-6.3262486E-1,-4.2688518E0,1.6386166E1,3.364854E2,-3.4188359E0,2.7055368E0,1.0541016E0,-2.3084219E0,3.0671349E0,-1.1718595E0,-1.1457489E0,-5.7001348E0,3.1818116E0,-1.5526761E-1,1.1803201E0,3.9895124E0,3.6515088E0,-4.5318975E0,7.5632033E0,3.4448394E-1,-9.172345E-3,4.699184E0,-1.1797916E0,3.916487E-1,-5.9505615E0,-2.2306948E0,-2.7849789E0,2.220107E0,-5.3969425E-1,1.8575879E0,-1.1415268E0,-2.336906E0],"split_indices":[2,3,0,0,1,0,0,3,3,2,3,3,0,2,0,3,0,3,3,2,2,3,1,0,0,0,0,1,0,2,0,2,0,2,0,0,2,0,2,3,3,3,2,0,0,0,3,0,0,0,0,0,0,0,0,0,0,0,0,0,0,0,0,0,0,0,0,0,0,0,0,0,0,0,0],"split_type":[0,0,0,0,0,0,0,0,0,0,0,0,0,0,0,0,0,0,0,0,0,0,0,0,0,0,0,0,0,0,0,0,0,0,0,0,0,0,0,0,0,0,0,0,0,0,0,0,0,0,0,0,0,0,0,0,0,0,0,0,0,0,0,0,0,0,0,0,0,0,0,0,0,0,0],"sum_hessian":[2.344E3,2.297E3,4.7E1,1.446E3,8.51E2,4E0,4.3E1,1.4E1,1.432E3,5.52E2,2.99E2,2E0,2E0,5E0,3.8E1,1.1E1,3E0,1.62E2,1.27E3,1.49E2,4.03E2,2.66E2,3.3E1,1E0,1E0,4E0,1E0,6E0,3.2E1,1E1,1E0,9.1E1,7.1E1,1.8E1,1.252E3,4E0,1.45E2,1.3E1,3.9E2,1.9E1,2.47E2,2.7E1,6E0,2E0,4E0,2E0,3E1,9E0,1E0,5.1E1,4E1,5.3E1,1.8E1,1E1,8E0,1.1E1,1.241E3,1.24E2,2.1E1,1E0,1.2E1,3E0,3.87E2,1.1E1,8E0,9.5E1,1.52E2,3E0,2.4E1,1E0,5E0,1E0,1E0,2.7E1,3E0],"tree_param":{"num_deleted":"0","num_feature":"4","num_nodes":"75","size_leaf_vector":"1"}},{"base_weights":[1.7138403E-2,1.9933156E0,-1.7006697E-1,1.0909907E0,1.9299088E1,-1.1615954E1,-1.2173767E-1,5.3071034E-1,1.2548897E1,9.187498E0,-1.6038054E0,-5.3623166E0,6.8590446E0,-4.2218647E0,-1.9372825E-2,1.5105181E1,1.273968E-1,4.5877185E0,8.082604E0,2.445488E0,6.4108205E-1,-1.3196509E1,-8.919441E-1,1.9687046E0,-3.315851E-1,9.765218E-1,7.2596335E0,-1.3621349E1,5.9273624E-1,8.608856E0,-5.8034897E-1,-1.58033085E1,3.103782E0,7.4089E0,-2.2152233E0,2.088969E1,1.4131372E0,-7.7198606E0,-2.4013443E-1,9.26088E-1,-4.8665315E-1,-1.5907487E0,-4.936546E0,1.7587475E0,-1.8320255E-1,1.1344773E0,3.463598E0,-5.1897585E-1,4.3025437E-1,-1.1931272E0,-6.1852527E0,-3.3354342E-2,-2.6947684E0,9.4238205E0,-7.9157434E0,2.4966606E-1,5.0346923E0,-5.415464E0,2.4642757E-1,-5.4676455E-2,-3.4847205E0],"categories":[],"categories_nodes":[],"categories_segments":[],"categories_sizes":[],"default_left":[0,0,0,0,0,0,0,0,0,0,0,0,0,0,0,0,0,0,0,0,0,0,0,0,0,0,0,0,0,0,0,0,0,0,0,0,0,0,0,0,0,0,0,0,0,0,0,0,0,0,0,0,0,0,0,0,0,0,0,0,0],"id":11,"left_children":[1,3,5,7,9,11,13,15,17,-1,-1,-1,19,21,23,25,27,29,-1,-1,-1,31,33,35,37,39,-1,41,43,45,47,49,-1,-1,51,53,55,57,59,-1,-1,-1,-1,-1,-1,-1,-1,-1,-1,-1,-1,-1,-1,-1,-1,-1,-1,-1,-1,-1,-1],"loss_changes":[8.678741E2,3.148877E3,1.184033E3,1.2387504E3,2.9550032E3,1.1632222E3,8.959967E2,1.0913986E3,9.076732E2,0E0,0E0,0E0,8.915863E-1,1.5422421E3,1.2941962E3,6.1877124E2,1.1724796E3,1.5046672E2,0E0,0E0,0E0,1.02268604E3,1.3752646E3,2.9453428E3,1.2156903E3,2.1460773E1,0E0,5.419055E1,1.126058E3,1.30407715E1,1.1744396E1,6.581411E2,0E0,0E0,5.4007434E2,4.808708E3,2.45022E3,1.9562374E3,1.1705205E3,0E0,0E0,0E0,0E0,0E0,0E0,0E0,0E0,0E0,0E0,0E0,0E0,0E0,0E0,0E0,0E0,0E0,0E0,0E0,0E0,0E0,0E0],"parents":[2147483647,0,0,1,1,2,2,3,3,4,4,5,5,6,6,7,7,8,8,12,12,13,13,14,14,15,15,16,16,17,17,21,21,22,22,23,23,24,24,25,25,27,27,28,28,29,29,30,30,31,31,34,34,35,35,36,36,37,37,38,38],"right_children":[2,4,6,8,10,12,14,16,18,-1,-1,-1,20,22,24,26,28,30,-1,-1,-1,32,34,36,38,40,-1,42,44,46,48,50,-1,-1,52,54,56,58,60,-1,-1,-1,-1,-1,-1,-1,-1,-1,-1,-1,-1,-1,-1,-1,-1,-1,-1,-1,-1,-1,-1],"split_conditions":[1.14862E1,1.1367109E1,1.1631956E1,1.61E1,1.939763E2,1.937992E1,1.8403333E0,1.4736665E0,2.4468228E2,9.187498E0,-1.6038054E0,-5.3623166E0,2.9096582E1,1.6299694E1,6.909085E0,6.4658326E-1,3.040333E0,2.2000002E1,8.082604E0,2.445488E0,6.4108205E-1,3.3060275E2,1.662249E1,1.1966953E1,7.3257504E0,-1.1200833E0,7.2596335E0,4.7297462E1,4.358564E1,1.88E1,2.475075E1,2.9680566E2,3.103782E0,7.4089E0,3.281016E2,3.1845184E2,6.815333E0,8.344161E1,3.5886472E2,9.26088E-1,-4.8665315E-1,-1.5907487E0,-4.936546E0,1.7587475E0,-1.8320255E-1,1.1344773E0,3.463598E0,-5.1897585E-1,4.3025437E-1,-1.1931272E0,-6.1852527E0,-3.3354342E-2,-2.6947684E0,9.4238205E0,-7.9157434E0,2.4966606E-1,5.0346923E0,-5.415464E0,2.4642757E-1,-5.4676455E-2,-3.4847205E0],"split_indices":[2,2,2,1,3,0,0,0,3,0,0,0,0,2,0,0,0,1,0,0,0,3,2,2,0,0,0,3,3,1,0,3,0,0,3,3,0,3,3,0,0,0,0,0,0,0,0,0,0,0,0,0,0,0,0,0,0,0,0,0,0],"split_type":[0,0,0,0,0,0,0,0,0,0,0,0,0,0,0,0,0,0,0,0,0,0,0,0,0,0,0,0,0,0,0,0,0,0,0,0,0,0,0,0,0,0,0,0,0,0,0,0,0,0,0,0,0,0,0,0,0,0,0,0,0],"sum_hessian":[2.344E3,2.02E2,2.142E3,1.93E2,9E0,8E0,2.134E3,1.85E2,8E0,6E0,3E0,6E0,2E0,5.1E1,2.083E3,4E0,1.81E2,6E0,2E0,1E0,1E0,1.3E1,3.8E1,2.82E2,1.801E3,2E0,2E0,5E0,1.76E2,3E0,3E0,1.2E1,1E0,1E0,3.7E1,7E0,2.75E2,2.1E1,1.78E3,1E0,1E0,2E0,3E0,3.2E1,1.44E2,2E0,1E0,2E0,1E0,4E0,8E0,2.9E1,8E0,6E0,1E0,2.66E2,9E0,9E0,1.2E1,1.772E3,8E0],"tree_param":{"num_deleted":"0","num_feature":"4","num_nodes":"61","size_leaf_vector":"1"}},{"base_weights":[2.016014E-2,1.90671E-1,-1.5794115E0,6.3004E-3,2.4190125E0,-1.785025E0,4.2898602E0,1.6347525E-1,-5.649147E0,4.5208974E0,-2.9796734E0,-2.8334892E0,1.6512176E0,1.464994E0,-1.7968231E-1,1.3507445E1,-7.0686917E0,-8.42459E0,5.2965508E0,-7.025627E0,3.7043455E0,-5.7613025E0,-9.1039586E-1,1.24418955E1,-3.7899885E0,-8.4911793E-1,4.107149E0,-1.3361963E1,-1.0057433E-1,-1.0504938E0,6.1033077E0,-1.44053755E1,-5.106849E0,-1.0842333E1,-1.5868212E0,1.1627419E1,2.8082364E0,-4.068947E0,-3.8892753E0,-6.228288E0,5.3351927E0,-3.9367425E0,-1.1445076E1,1.131581E1,-2.3164787E0,-3.2576911E0,1.7160183E1,8.75481E-1,-5.618072E0,9.7121365E-2,-2.904583E0,3.9235775E0,6.6854477E-1,-6.478766E0,7.8764124E0,-1.22065125E-2,-4.5076075E0,-5.7055902E0,-8.192499E-1,-3.142387E0,-2.6047012E-1,-4.499262E-1,-3.840912E0,-6.5782416E-1,-5.6245424E-2,2.5824952E0,7.6815267E0,-2.7991037E0,1.1188785E0,-1.8733515E0,2.155605E-1,-2.9131165E0,1.10386856E-1,-5.319792E-1,2.1336033E0,-2.8248086E0,-9.918872E-2,-3.8798635E0,1.630794E0,5.7297354E0,-5.5319506E-1,-1.8254182E0,-3.491808E-2,8.3095896E-1,-4.1051865E0,5.472974E0,4.6205637E-1,-1.5559864E0,2.7561984E0,-5.7058525E-1,-2.6002398E0],"categories":[],"categories_nodes":[],"categories_segments":[],"categories_sizes":[],"default_left":[0,0,0,0,0,0,0,0,0,0,0,0,0,0,0,0,0,0,0,0,0,0,0,0,0,0,0,0,0,0,0,0,0,0,0,0,0,0,0,0,0,0,0,0,0,0,0,0,0,0,0,0,0,0,0,0,0,0,0,0,0,0,0,0,0,0,0,0,0,0,0,0,0,0,0,0,0,0,0,0,0,0,0,0,0,0,0,0,0,0,0],"id":12,"left_children":[1,3,5,7,9,11,-1,13,15,17,19,21,23,25,27,29,31,33,35,37,39,41,43,45,47,49,51,53,55,-1,-1,57,59,61,63,65,67,-1,69,71,73,75,77,79,81,83,85,87,89,-1,-1,-1,-1,-1,-1,-1,-1,-1,-1,-1,-1,-1,-1,-1,-1,-1,-1,-1,-1,-1,-1,-1,-1,-1,-1,-1,-1,-1,-1,-1,-1,-1,-1,-1,-1,-1,-1,-1,-1,-1,-1],"loss_changes":[6.398866E2,8.7096704E2,7.6339813E2,1.7422671E3,1.8517523E3,8.117007E2,0E0,8.51979E2,1.5367427E3,1.2194429E3,1.270014E3,9.631937E2,3.1590125E3,2.4369558E3,1.57332E3,5.3639746E2,6.4610474E2,9.851895E1,1.7159517E3,5.4186487E2,3.2480408E2,6.6012964E2,1.8312739E3,1.3892559E3,3.1195776E2,2.2097354E3,3.1057634E3,3.5027988E3,1.3418536E3,0E0,0E0,4.866399E2,9.2373474E2,7.2388855E1,2.132576E0,1.0877832E3,9.407013E2,0E0,2.323883E2,7.247935E1,2.1469846E2,1.0441097E3,4.721538E2,1.1619125E3,7.868862E2,3.52127E2,2.087461E2,6.019111E2,2.7814465E2,0E0,0E0,0E0,0E0,0E0,0E0,0E0,0E0,0E0,0E0,0E0,0E0,0E0,0E0,0E0,0E0,0E0,0E0,0E0,0E0,0E0,0E0,0E0,0E0,0E0,0E0,0E0,0E0,0E0,0E0,0E0,0E0,0E0,0E0,0E0,0E0,0E0,0E0,0E0,0E0,0E0,0E0],"parents":[2147483647,0,0,1,1,2,2,3,3,4,4,5,5,7,7,8,8,9,9,10,10,11,11,12,12,13,13,14,14,15,15,16,16,17,17,18,18,19,19,20,20,21,21,22,22,23,23,24,24,25,25,26,26,27,27,28,28,31,31,32,32,33,33,34,34,35,35,36,36,38,38,39,39,40,40,41,41,42,42,43,43,44,44,45,45,46,46,47,47,48,48],"right_children":[2,4,6,8,10,12,-1,14,16,18,20,22,24,26,28,30,32,34,36,38,40,42,44,46,48,50,52,54,56,-1,-1,58,60,62,64,66,68,-1,70,72,74,76,78,80,82,84,86,88,90,-1,-1,-1,-1,-1,-1,-1,-1,-1,-1,-1,-1,-1,-1,-1,-1,-1,-1,-1,-1,-1,-1,-1,-1,-1,-1,-1,-1,-1,-1,-1,-1,-1,-1,-1,-1,-1,-1,-1,-1,-1,-1],"split_conditions":[1.1800001E1,6.6E0,3.0315336E1,5.6000004E0,2.2862125E1,2.3933907E1,4.2898602E0,7.767416E0,1.6672632E1,6.382E0,2.800837E1,1.7100002E1,2.7748037E1,5.0569997E0,7.8549156E0,7.0215836E0,8.657E0,9.5E0,1.5884083E1,9.417418E0,8.516759E0,1.964228E1,1.2261158E1,1.1713249E1,1.7E1,4.640333E0,5.4236674E0,1.9852295E1,3.5886472E2,-1.0504938E0,6.1033077E0,2.2218153E1,1.6700275E1,1.0808219E1,5.354917E0,1.2886167E1,1.0703569E1,-4.068947E0,2.6717722E1,1.5884083E1,7.1000004E0,1.5716793E1,2.7346586E1,2.2000002E1,1.7414474E1,2.11E1,6.59E1,1.3866049E2,1.3007477E2,9.7121365E-2,-2.904583E0,3.9235775E0,6.6854477E-1,-6.478766E0,7.8764124E0,-1.22065125E-2,-4.5076075E0,-5.7055902E0,-8.192499E-1,-3.142387E0,-2.6047012E-1,-4.499262E-1,-3.840912E0,-6.5782416E-1,-5.6245424E-2,2.5824952E0,7.6815267E0,-2.7991037E0,1.1188785E0,-1.8733515E0,2.155605E-1,-2.9131165E0,1.10386856E-1,-5.319792E-1,2.1336033E0,-2.8248086E0,-9.918872E-2,-3.8798635E0,1.630794E0,5.7297354E0,-5.5319506E-1,-1.8254182E0,-3.491808E-2,8.3095896E-1,-4.1051865E0,5.472974E0,4.6205637E-1,-1.5559864E0,2.7561984E0,-5.7058525E-1,-2.6002398E0],"split_indices":[1,1,0,1,2,2,0,0,3,0,2,1,2,0,0,0,0,1,0,0,3,2,2,0,1,0,0,2,3,0,0,2,2,3,0,0,2,0,2,0,1,2,0,1,2,1,1,3,3,0,0,0,0,0,0,0,0,0,0,0,0,0,0,0,0,0,0,0,0,0,0,0,0,0,0,0,0,0,0,0,0,0,0,0,0,0,0,0,0,0,0],"split_type":[0,0,0,0,0,0,0,0,0,0,0,0,0,0,0,0,0,0,0,0,0,0,0,0,0,0,0,0,0,0,0,0,0,0,0,0,0,0,0,0,0,0,0,0,0,0,0,0,0,0,0,0,0,0,0,0,0,0,0,0,0,0,0,0,0,0,0,0,0,0,0,0,0,0,0,0,0,0,0,0,0,0,0,0,0,0,0,0,0,0,0],"sum_hessian":[2.344E3,2.119E3,2.25E2,1.958E3,1.61E2,2.23E2,2E0,1.906E3,5.2E1,1.16E2,4.5E1,1.71E2,5.2E1,3.97E2,1.509E3,3E0,4.9E1,6E0,1.1E2,2.8E1,1.7E1,6.7E1,1.04E2,1.7E1,3.5E1,2.12E2,1.85E2,8E0,1.501E3,1E0,2E0,9E0,4E1,4E0,2E0,3E1,8E1,8E0,2E1,2E0,1.5E1,5.2E1,1.5E1,1E1,9.4E1,4E0,1.3E1,1E1,2.5E1,1.88E2,2.4E1,3.1E1,1.54E2,7E0,1E0,1.496E3,5E0,6E0,3E0,1.7E1,2.3E1,1E0,3E0,1E0,1E0,2.6E1,4E0,5E0,7.5E1,1.3E1,7E0,1E0,1E0,3E0,1.2E1,2E1,3.2E1,1.4E1,1E0,6E0,4E0,3.4E1,6E1,3E0,1E0,1.2E1,1E0,6E0,4E0,1.2E1,1.3E1],"tree_param":{"num_deleted":"0","num_feature":"4","num_nodes":"91","size_leaf_vector":"1"}},{"base_weights":[1.1366742E-2,1.6901327E0,-1.1647111E-1,-3.162192E-1,4.81256E0,-6.665108E-1,4.9155203E-1,9.993835E-1,-1.2519703E1,2.6669815E0,1.5102946E1,-8.943926E-1,7.0395164E0,9.418417E-1,-2.4701433E0,3.2768269E0,-3.8924747E0,-6.140892E0,-3.8081386E0,6.0873604E0,-5.3366513E0,2.2018057E1,5.6706786E0,-4.2103064E-1,-3.4995735E0,2.0828722E1,5.4779963E0,1.7540817E0,-7.9912424E-1,-3.9187942E0,2.4057047E0,9.299023E0,5.27477E-1,-1.4303712E1,2.0283294E0,-1.3046217E1,2.9336038E0,3.2277913E0,7.466062E0,-7.629952E0,4.7034235E0,7.1876326E0,1.8471692E0,-1.6932266E0,6.373531E0,-3.0605635E-1,-9.315616E0,-8.135809E0,-2.5348854E0,9.218215E0,1.547104E-1,-9.2632973E-1,7.745863E0,4.6651134E0,1.2122453E0,4.5447564E-1,-9.281677E0,-2.7059312E0,-1.319406E1,1.1048752E1,-4.5629853E-1,-4.703577E0,4.388732E0,-4.723566E0,7.4972606E-1,-4.618605E0,-5.081005E-1,-1.1125476E0,2.8356164E0,-9.8155063E-1,-4.56412E0,-1.140292E0,3.26808E0,-4.118236E0,-7.7961206E-1,-1.4570488E0,6.1043555E-1,-1.0029494E0,7.964307E-3,-5.935128E0,1.3349469E0,-4.658983E0,-1.523167E0,3.8110992E-1,-1.397438E0,2.7501917E0,-1.5359521E0,2.781613E0,-5.464514E-1,-6.85579E-2,3.064895E0,-7.3486214E0,4.682007E-1,-4.2914305E0,3.3787447E-1,-4.0101423E0,-2.1331285E-1,-2.24951E-1,-2.5384405E0,7.4522406E-2,-4.7722187E0,5.3509027E-1,3.6352608E0,1.2311654E0,-1.2997303E0],"categories":[],"categories_nodes":[],"categories_segments":[],"categories_sizes":[],"default_left":[0,0,0,0,0,0,0,0,0,0,0,0,0,0,0,0,0,0,0,0,0,0,0,0,0,0,0,0,0,0,0,0,0,0,0,0,0,0,0,0,0,0,0,0,0,0,0,0,0,0,0,0,0,0,0,0,0,0,0,0,0,0,0,0,0,0,0,0,0,0,0,0,0,0,0,0,0,0,0,0,0,0,0,0,0,0,0,0,0,0,0,0,0,0,0,0,0,0,0,0,0,0,0,0,0],"id":13,"left_children":[1,3,5,7,9,11,13,15,17,19,21,23,25,27,29,31,33,-1,35,37,39,41,43,45,47,49,51,53,55,57,59,61,63,65,67,69,-1,71,-1,73,-1,-1,-1,75,-1,77,79,81,83,-1,-1,85,87,89,91,93,95,97,99,101,103,-1,-1,-1,-1,-1,-1,-1,-1,-1,-1,-1,-1,-1,-1,-1,-1,-1,-1,-1,-1,-1,-1,-1,-1,-1,-1,-1,-1,-1,-1,-1,-1,-1,-1,-1,-1,-1,-1,-1,-1,-1,-1,-1,-1],"loss_changes":[5.0345694E2,1.04146E3,7.294001E2,1.6501155E3,1.3948448E3,2.0169884E3,1.3839578E3,1.0488615E3,6.146127E2,1.5381364E3,5.926194E2,1.371071E3,5.964606E2,1.2740758E3,9.7711346E2,1.0547507E3,1.8782996E3,0E0,8.8067126E2,2.0162522E3,9.389055E2,3.7168945E1,7.2410425E2,9.615066E2,7.44178E2,5.873689E2,4.5742407E2,9.6280884E2,3.056098E3,1.1567584E3,7.966073E2,2.8920188E3,1.4831022E3,1.25346924E2,8.868246E2,3.496765E1,0E0,1.9272466E3,0E0,4.5517462E2,0E0,0E0,0E0,6.885234E1,0E0,9.415526E2,1.8172172E3,5.770032E2,1.1612812E3,0E0,0E0,4.2788504E2,3.5272424E2,2.6102307E3,4.6869907E3,2.5047395E3,1.286051E3,1.0632007E3,4.4163818E2,5.7605957E1,4.5967706E2,0E0,0E0,0E0,0E0,0E0,0E0,0E0,0E0,0E0,0E0,0E0,0E0,0E0,0E0,0E0,0E0,0E0,0E0,0E0,0E0,0E0,0E0,0E0,0E0,0E0,0E0,0E0,0E0,0E0,0E0,0E0,0E0,0E0,0E0,0E0,0E0,0E0,0E0,0E0,0E0,0E0,0E0,0E0,0E0],"parents":[2147483647,0,0,1,1,2,2,3,3,4,4,5,5,6,6,7,7,8,8,9,9,10,10,11,11,12,12,13,13,14,14,15,15,16,16,18,18,19,19,20,20,21,21,22,22,23,23,24,24,25,25,26,26,27,27,28,28,29,29,30,30,31,31,32,32,33,33,34,34,35,35,37,37,39,39,43,43,45,45,46,46,47,47,48,48,51,51,52,52,53,53,54,54,55,55,56,56,57,57,58,58,59,59,60,60],"right_children":[2,4,6,8,10,12,14,16,18,20,22,24,26,28,30,32,34,-1,36,38,40,42,44,46,48,50,52,54,56,58,60,62,64,66,68,70,-1,72,-1,74,-1,-1,-1,76,-1,78,80,82,84,-1,-1,86,88,90,92,94,96,98,100,102,104,-1,-1,-1,-1,-1,-1,-1,-1,-1,-1,-1,-1,-1,-1,-1,-1,-1,-1,-1,-1,-1,-1,-1,-1,-1,-1,-1,-1,-1,-1,-1,-1,-1,-1,-1,-1,-1,-1,-1,-1,-1,-1,-1,-1],"split_conditions":[1.09859E1,1.0261579E1,1.4393129E2,1.0163227E1,2.7777264E2,2.9507006E1,2.8773672E1,6E-1,1.562306E2,1.2454839E2,1E-1,2.5294497E1,2.9596588E1,3.2088892E2,2.003712E2,7.567451E1,2.7999995E0,-6.140892E0,1E-1,1.1490473E2,2.8959085E1,1.0564941E1,8.7E0,1.4201003E2,1.4205182E1,1E-1,2.9948668E1,6.0174165E0,2.7748037E1,1.939763E2,6E-1,8.36758E0,9.623349E1,9.47012E0,2.4159082E1,9.046584E0,2.9336038E0,1.7092415E1,7.466062E0,1.1311168E1,4.7034235E0,7.1876326E0,1.8471692E0,1.0564941E1,6.373531E0,6.1194997E0,1.5113251E1,1E-1,1.7570988E1,9.218215E0,1.547104E-1,1.7057314E1,2.2691425E1,3.3570006E0,6.815333E0,3.2413562E2,3.6999998E0,2.0966715E1,1.2620554E1,2.9096582E1,2.1989206E2,-4.703577E0,4.388732E0,-4.723566E0,7.4972606E-1,-4.618605E0,-5.081005E-1,-1.1125476E0,2.8356164E0,-9.8155063E-1,-4.56412E0,-1.140292E0,3.26808E0,-4.118236E0,-7.7961206E-1,-1.4570488E0,6.1043555E-1,-1.0029494E0,7.964307E-3,-5.935128E0,1.3349469E0,-4.658983E0,-1.523167E0,3.8110992E-1,-1.397438E0,2.7501917E0,-1.5359521E0,2.781613E0,-5.464514E-1,-6.85579E-2,3.064895E0,-7.3486214E0,4.682007E-1,-4.2914305E0,3.3787447E-1,-4.0101423E0,-2.1331285E-1,-2.24951E-1,-2.5384405E0,7.4522406E-2,-4.7722187E0,5.3509027E-1,3.6352608E0,1.2311654E0,-1.2997303E0],"split_indices":[2,2,3,2,3,0,0,1,3,3,1,0,0,3,3,3,1,0,1,3,0,2,1,3,2,1,0,0,2,3,1,2,3,2,0,0,0,0,0,0,0,0,0,2,0,0,0,1,2,0,0,2,2,0,0,3,1,2,2,0,3,0,0,0,0,0,0,0,0,0,0,0,0,0,0,0,0,0,0,0,0,0,0,0,0,0,0,0,0,0,0,0,0,0,0,0,0,0,0,0,0,0,0,0,0],"split_type":[0,0,0,0,0,0,0,0,0,0,0,0,0,0,0,0,0,0,0,0,0,0,0,0,0,0,0,0,0,0,0,0,0,0,0,0,0,0,0,0,0,0,0,0,0,0,0,0,0,0,0,0,0,0,0,0,0,0,0,0,0,0,0,0,0,0,0,0,0,0,0,0,0,0,0,0,0,0,0,0,0,0,0,0,0,0,0,0,0,0,0,0,0,0,0,0,0,0,0,0,0,0,0,0,0],"sum_hessian":[2.344E3,1.65E2,2.179E3,1.01E2,6.4E1,1.144E3,1.035E3,9.2E1,9E0,5.4E1,1E1,1.112E3,3.2E1,8.99E2,1.36E2,6.3E1,2.9E1,4E0,5E0,3.8E1,1.6E1,5E0,5E0,9.42E2,1.7E2,2E0,3E1,6.13E2,2.86E2,1.05E2,3.1E1,1.9E1,4.4E1,1E1,1.9E1,3E0,2E0,3.4E1,4E0,1.5E1,1E0,4E0,1E0,4E0,1E0,9.31E2,1.1E1,2.8E1,1.42E2,1E0,1E0,8E0,2.2E1,9.5E1,5.18E2,2.5E2,3.6E1,9.4E1,1.1E1,7E0,2.4E1,3E0,1.6E1,4E0,4E1,9E0,1E0,1.1E1,8E0,1E0,2E0,1.8E1,1.6E1,6E0,9E0,2E0,2E0,9.1E1,8.4E2,6E0,5E0,7E0,2.1E1,5.1E1,9.1E1,2E0,6E0,1.9E1,3E0,5.1E1,4.4E1,6E0,5.12E2,1E1,2.4E2,2.4E1,1.2E1,7.1E1,2.3E1,2E0,9E0,1E0,6E0,1.1E1,1.3E1],"tree_param":{"num_deleted":"0","num_feature":"4","num_nodes":"105","size_leaf_vector":"1"}},{"base_weights":[4.597796E-3,8.051569E-2,-2.3932064E0,1.9471822E-2,4.496707E0,-3.9728878E0,5.0817246E0,1.4648676E-1,-1.9503368E0,2.5788987E0,1.2057758E1,2.375946E-1,-7.1996565E0,-5.1911964E0,1.0224267E1,2.2569889E-1,-3.0543814E0,-2.2056112E0,3.0306094E0,5.149167E0,-1.3941189E0,5.1844506E0,5.125511E0,-3.368005E0,4.8114257E0,-2.5741384E0,-1.11682205E1,-1.9583751E0,2.3352815E-2,5.261744E0,8.64534E-1,1.0527554E-1,1.387452E1,-5.687851E0,-1.6653216E0,-9.5656216E-1,-5.015489E0,4.718526E0,2.5143867E0,-4.1991806E0,8.086564E-1,3.5510767E0,-2.2513082E0,-2.5958736E0,8.171402E0,-6.619384E0,9.1947174E-1,-1.404186E1,-4.646522E0,-9.9778694E-1,2.7436457E0,7.2675034E-2,-3.0378177E0,5.061001E-1,5.529678E0,4.091641E0,-1.6640266E0,2.4005428E-1,-1.6745692E0,-3.300028E0,-8.965699E-1,-2.962633E0,1.2681301E0,4.0080644E-2,-1.5947331E0,8.800234E-1,-9.0064627E-1,4.8195162E-1,-1.8447853E0,6.777602E-1,4.7033415E0,-2.2854273E0,5.5735018E-2,2.7294617E0,-6.787462E-1,-5.008971E0,-1.5366212E-1,1.3480453E0,-2.0756314E0,9.885449E-1,1.6337013E-1],"categories":[],"categories_nodes":[],"categories_segments":[],"categories_sizes":[],"default_left":[0,0,0,0,0,0,0,0,0,0,0,0,0,0,0,0,0,0,0,0,0,0,0,0,0,0,0,0,0,0,0,0,0,0,0,0,0,0,0,0,0,0,0,0,0,0,0,0,0,0,0,0,0,0,0,0,0,0,0,0,0,0,0,0,0,0,0,0,0,0,0,0,0,0,0,0,0,0,0,0,0],"id":14,"left_children":[1,3,5,7,9,11,13,15,17,19,21,23,25,27,29,31,33,35,-1,37,39,-1,41,-1,43,45,47,-1,-1,-1,49,51,53,-1,55,57,59,-1,61,63,65,-1,-1,67,69,71,73,75,77,-1,79,-1,-1,-1,-1,-1,-1,-1,-1,-1,-1,-1,-1,-1,-1,-1,-1,-1,-1,-1,-1,-1,-1,-1,-1,-1,-1,-1,-1,-1,-1],"loss_changes":[4.2706766E2,6.1294055E2,8.7036584E2,5.617235E2,4.1842432E2,8.1688574E2,7.3985236E2,5.3542126E2,4.4070697E2,2.726833E2,1.2869714E2,1.4697793E3,5.953782E2,3.572432E1,6.010246E2,3.3827878E3,1.0951777E3,4.6549878E2,0E0,4.064367E2,7.136382E1,0E0,4.2788553E2,0E0,5.189789E2,2.4633902E2,2.720923E2,0E0,0E0,0E0,4.8497242E1,2.8641787E3,9.6875977E2,0E0,2.9269443E3,7.682659E2,4.6446912E2,0E0,3.3882764E2,2.490004E1,6.5485825E1,0E0,0E0,1.1440831E2,5.8589185E2,5.5786255E1,2.8082855E2,4.2245557E2,1.7646796E2,0E0,3.0567703E0,0E0,0E0,0E0,0E0,0E0,0E0,0E0,0E0,0E0,0E0,0E0,0E0,0E0,0E0,0E0,0E0,0E0,0E0,0E0,0E0,0E0,0E0,0E0,0E0,0E0,0E0,0E0,0E0,0E0,0E0],"parents":[2147483647,0,0,1,1,2,2,3,3,4,4,5,5,6,6,7,7,8,8,9,9,10,10,11,11,12,12,13,13,14,14,15,15,16,16,17,17,19,19,20,20,22,22,24,24,25,25,26,26,30,30,31,31,32,32,34,34,35,35,36,36,38,38,39,39,40,40,43,43,44,44,45,45,46,46,47,47,48,48,50,50],"right_children":[2,4,6,8,10,12,14,16,18,20,22,24,26,28,30,32,34,36,-1,38,40,-1,42,-1,44,46,48,-1,-1,-1,50,52,54,-1,56,58,60,-1,62,64,66,-1,-1,68,70,72,74,76,78,-1,80,-1,-1,-1,-1,-1,-1,-1,-1,-1,-1,-1,-1,-1,-1,-1,-1,-1,-1,-1,-1,-1,-1,-1,-1,-1,-1,-1,-1,-1,-1],"split_conditions":[2.7000002E1,2.11E1,2.6850752E1,1.1400001E1,2.4468228E2,2.27195E1,1.4539945E1,3.544923E2,3.0694504E1,1.6488177E2,2.55E1,1.6300749E1,1.1761494E2,2.7444502E1,2.7257967E1,3.533047E2,3.3570006E0,2.488408E1,3.0306094E0,1.2261158E1,2.5146584E1,5.1844506E0,1.8173664E1,-3.368005E0,8.546633E1,3.8E1,2.2930048E1,-1.9583751E0,2.3352815E-2,5.261744E0,3.8E1,3.5009155E2,2.0304129E1,-5.687851E0,5.640333E0,1.6275844E2,1.3363711E1,4.718526E0,2.2000002E1,2.0963251E1,2.2396786E2,3.5510767E0,-2.2513082E0,1.8359999E1,2.0380579E1,2.3933907E1,5.87E1,2.6314758E2,4.22E1,-9.9778694E-1,2.7663252E1,7.2675034E-2,-3.0378177E0,5.061001E-1,5.529678E0,4.091641E0,-1.6640266E0,2.4005428E-1,-1.6745692E0,-3.300028E0,-8.965699E-1,-2.962633E0,1.2681301E0,4.0080644E-2,-1.5947331E0,8.800234E-1,-9.0064627E-1,4.8195162E-1,-1.8447853E0,6.777602E-1,4.7033415E0,-2.2854273E0,5.5735018E-2,2.7294617E0,-6.787462E-1,-5.008971E0,-1.5366212E-1,1.3480453E0,-2.0756314E0,9.885449E-1,1.6337013E-1],"split_indices":[1,1,0,1,3,0,2,3,0,3,1,0,3,0,2,3,0,0,0,2,0,0,0,0,3,1,2,0,0,0,1,3,2,0,0,3,2,0,1,0,3,0,0,2,2,2,1,3,1,0,0,0,0,0,0,0,0,0,0,0,0,0,0,0,0,0,0,0,0,0,0,0,0,0,0,0,0,0,0,0,0],"split_type":[0,0,0,0,0,0,0,0,0,0,0,0,0,0,0,0,0,0,0,0,0,0,0,0,0,0,0,0,0,0,0,0,0,0,0,0,0,0,0,0,0,0,0,0,0,0,0,0,0,0,0,0,0,0,0,0,0,0,0,0,0,0,0,0,0,0,0,0,0,0,0,0,0,0,0,0,0,0,0,0,0],"sum_hessian":[2.344E3,2.273E3,7.1E1,2.243E3,3E1,5.9E1,1.2E1,2.108E3,1.35E2,2.5E1,5E0,2.6E1,3.3E1,4E0,8E0,2.058E3,5E1,1.33E2,2E0,1.5E1,1E1,2E0,3E0,7E0,1.9E1,1.6E1,1.7E1,3E0,1E0,4E0,4E0,2.041E3,1.7E1,3E0,4.7E1,9.3E1,4E1,2E0,1.3E1,4E0,6E0,2E0,1E0,6E0,1.3E1,7E0,9E0,1.1E1,6E0,1E0,3E0,2.015E3,2.6E1,5E0,1.2E1,9E0,3.8E1,6.8E1,2.5E1,9E0,3.1E1,1E0,1.2E1,1E0,3E0,4E0,2E0,3E0,3E0,8E0,5E0,6E0,1E0,2E0,7E0,9E0,2E0,1E0,5E0,2E0,1E0],"tree_param":{"num_deleted":"0","num_feature":"4","num_nodes":"81","size_leaf_vector":"1"}},{"base_weights":[4.583293E-3,-4.489806E0,4.322612E-2,-6.613838E0,1.5685743E0,-2.3350121E-1,6.759638E-1,1.1374664E0,-7.893844E0,-2.3080125E0,3.1427262E0,-3.309398E0,-1.2525341E-1,1.5238765E0,-7.820471E-1,7.719887E-1,-2.601288E-1,-2.2528403E0,-1.2407156E1,-2.1186495E0,6.4606667E-1,-1.241426E-1,-1.26287775E1,2.396801E0,-4.1017267E-1,1.6999897E1,1.346165E0,-1.7029743E0,1.8052136E0,9.381294E-1,-4.8806E0,-4.7842054E0,-5.765171E0,-1.4240456E-1,3.5336307E-1,3.7162795E0,-1.461861E1,-1.9880878E1,4.4011774E0,1.3221797E0,2.2515007E1,-4.9270997E0,-2.1580827E-1,8.011237E0,1.6290411E0,8.603268E-1,6.9989486E0,-3.6342785E-1,-6.5103097E0,7.8404865E0,-3.1863505E-1,1.2068809E0,-1.2474438E0,-4.469101E-1,-1.6543001E0,-3.6790696E-1,-2.0607972E0,3.321762E-1,5.588153E0,-6.590814E0,-1.3032353E0,3.2046456E0,-7.339103E0,7.4345403E0,-2.0668285E0,7.040526E-1,-7.200724E0,9.551334E0,-1.0906616E0,-4.288954E-2,-4.421892E0,5.819235E0,-8.655165E-2,-6.9725764E-1,1.4303261E0,6.212341E-1,-4.390993E-1,-3.8700144E0,2.5787578E0,-4.3395078E-1,1.1732157E0,-2.5838056E0,-3.4736407E-1,6.1432047E0,8.301861E-1,-3.3826223E-1,2.2531757E0],"categories":[],"categories_nodes":[],"categories_segments":[],"categories_sizes":[],"default_left":[0,0,0,0,0,0,0,0,0,0,0,0,0,0,0,0,0,0,0,0,0,0,0,0,0,0,0,0,0,0,0,0,0,0,0,0,0,0,0,0,0,0,0,0,0,0,0,0,0,0,0,0,0,0,0,0,0,0,0,0,0,0,0,0,0,0,0,0,0,0,0,0,0,0,0,0,0,0,0,0,0,0,0,0,0,0,0],"id":15,"left_children":[1,3,5,7,9,11,13,15,17,19,-1,21,23,25,27,-1,-1,29,31,-1,33,35,37,39,41,43,45,47,49,51,53,-1,55,-1,-1,57,59,61,63,65,67,69,71,-1,73,75,77,79,81,83,85,-1,-1,-1,-1,-1,-1,-1,-1,-1,-1,-1,-1,-1,-1,-1,-1,-1,-1,-1,-1,-1,-1,-1,-1,-1,-1,-1,-1,-1,-1,-1,-1,-1,-1,-1,-1],"loss_changes":[4.0746408E2,2.677382E2,4.074307E2,1.5780469E2,2.3135489E2,5.386462E2,8.76468E2,1.0865921E1,3.0302356E2,7.478333E1,0E0,1.6310854E3,1.1255637E3,1.2092361E3,6.2495337E2,0E0,0E0,6.327434E1,7.2658325E1,0E0,2.9432187E0,2.3922515E3,1.8165403E3,3.4077249E3,1.2341838E3,7.023091E2,1.2133525E3,1.2404863E3,8.869407E2,7.961206E1,3.8100433E-1,0E0,1.1621933E1,0E0,0E0,1.3020739E3,5.8429126E2,1.6619666E3,1.3212803E3,4.0006016E3,2.0661118E3,2.7206748E3,1.9304662E3,0E0,4.8305363E1,1.156395E3,1.2230789E3,7.092984E2,4.62646E2,1.0973009E3,3.3778973E2,0E0,0E0,0E0,0E0,0E0,0E0,0E0,0E0,0E0,0E0,0E0,0E0,0E0,0E0,0E0,0E0,0E0,0E0,0E0,0E0,0E0,0E0,0E0,0E0,0E0,0E0,0E0,0E0,0E0,0E0,0E0,0E0,0E0,0E0,0E0,0E0],"parents":[2147483647,0,0,1,1,2,2,3,3,4,4,5,5,6,6,7,7,8,8,9,9,11,11,12,12,13,13,14,14,17,17,18,18,20,20,21,21,22,22,23,23,24,24,25,25,26,26,27,27,28,28,29,29,30,30,32,32,35,35,36,36,37,37,38,38,39,39,40,40,41,41,42,42,44,44,45,45,46,46,47,47,48,48,49,49,50,50],"right_children":[2,4,6,8,10,12,14,16,18,20,-1,22,24,26,28,-1,-1,30,32,-1,34,36,38,40,42,44,46,48,50,52,54,-1,56,-1,-1,58,60,62,64,66,68,70,72,-1,74,76,78,80,82,84,86,-1,-1,-1,-1,-1,-1,-1,-1,-1,-1,-1,-1,-1,-1,-1,-1,-1,-1,-1,-1,-1,-1,-1,-1,-1,-1,-1,-1,-1,-1,-1,-1,-1,-1,-1,-1],"split_conditions":[-1.1200833E0,2.7105392E1,1.9215015E2,1.1966953E1,-1.9055003E0,4.640333E0,9.0000004E-1,1.1367109E1,-1.9055003E0,3.099513E2,3.1427262E0,4.329916E0,8.023669E0,1.939763E2,2.6684084E1,7.719887E-1,-2.601288E-1,3.0656754E2,3.0316177E2,-2.1186495E0,3.1163345E2,5E-1,3.5999997E0,1.5373102E2,8.748667E0,1.5978486E1,5E-1,2.3023666E1,2.7444502E1,2.1602999E1,3.074946E2,-4.7842054E0,1.3679999E1,-1.4240456E-1,3.5336307E-1,4.1882505E0,1.7E0,9.693296E0,3.8999999E0,1.3764262E2,1.7189018E2,7.911448E1,8.846583E0,8.011237E0,2.4525751E1,3.3337607E2,5.354917E0,1.9607E1,2.3224882E1,7.9999995E0,1.8900005E1,1.2068809E0,-1.2474438E0,-4.469101E-1,-1.6543001E0,-3.6790696E-1,-2.0607972E0,3.321762E-1,5.588153E0,-6.590814E0,-1.3032353E0,3.2046456E0,-7.339103E0,7.4345403E0,-2.0668285E0,7.040526E-1,-7.200724E0,9.551334E0,-1.0906616E0,-4.288954E-2,-4.421892E0,5.819235E0,-8.655165E-2,-6.9725764E-1,1.4303261E0,6.212341E-1,-4.390993E-1,-3.8700144E0,2.5787578E0,-4.3395078E-1,1.1732157E0,-2.5838056E0,-3.4736407E-1,6.1432047E0,8.301861E-1,-3.3826223E-1,2.2531757E0],"split_indices":[0,2,3,2,0,0,1,2,0,3,0,0,0,3,0,0,0,3,3,0,3,1,1,3,0,2,1,0,0,2,3,0,2,0,0,0,1,2,1,3,3,3,0,0,0,3,0,0,2,1,1,0,0,0,0,0,0,0,0,0,0,0,0,0,0,0,0,0,0,0,0,0,0,0,0,0,0,0,0,0,0,0,0,0,0,0,0],"split_type":[0,0,0,0,0,0,0,0,0,0,0,0,0,0,0,0,0,0,0,0,0,0,0,0,0,0,0,0,0,0,0,0,0,0,0,0,0,0,0,0,0,0,0,0,0,0,0,0,0,0,0,0,0,0,0,0,0,0,0,0,0,0,0,0,0,0,0,0,0,0,0,0,0,0,0,0,0,0,0,0,0,0,0,0,0,0,0],"sum_hessian":[2.344E3,1.9E1,2.325E3,1.4E1,5E0,1.618E3,7.07E2,2E0,1.2E1,4E0,1E0,5.4E1,1.564E3,4.47E2,2.6E2,1E0,1E0,6E0,6E0,1E0,3E0,4.1E1,1.3E1,1.58E2,1.406E3,4E0,4.43E2,1.92E2,6.8E1,3E0,3E0,3E0,3E0,1E0,2E0,3.3E1,8E0,9E0,4E0,1.51E2,7E0,5.7E1,1.349E3,2E0,2E0,4.09E2,3.4E1,1.51E2,4.1E1,1.7E1,5.1E1,2E0,1E0,1E0,2E0,1E0,2E0,2.9E1,4E0,4E0,4E0,1E0,8E0,1E0,3E0,1.46E2,5E0,5E0,2E0,3.9E1,1.8E1,4E0,1.345E3,1E0,1E0,2.69E2,1.4E2,2E0,3.2E1,1.21E2,3E1,2.9E1,1.2E1,4E0,1.3E1,4.7E1,4E0],"tree_param":{"num_deleted":"0","num_feature":"4","num_nodes":"87","size_leaf_vector":"1"}},{"base_weights":[7.136843E-3,-2.065727E0,9.269796E-2,2.4431519E-1,-1.1075593E1,4.345469E0,-6.99334E-2,4.4602E0,-3.977999E0,-1.5040712E1,-4.998714E0,7.0937705E0,-3.5972652E0,-8.460517E0,8.078499E-3,-8.724993E-2,1.008277E1,-7.9445686E0,9.6859E0,-4.7985816E0,-8.2426816E-1,-7.4990873E0,2.501728E0,1.122674E1,-3.6327515E0,-6.5859013E0,1.7013988E0,-1.1684115E1,-8.0467445E-1,6.243367E0,-7.40844E-2,-3.6160762E0,7.991103E0,1.5567435E1,-6.193911E0,-1.0707311E1,9.9138594E-1,5.6239967E0,-1.3120353E0,-4.3111268E-1,-2.890949E0,2.1125737E-1,9.145203E-1,1.8581318E1,3.3840425E0,-7.0441318E0,6.645664E0,-8.756516E0,6.397252E0,-8.456479E0,-6.209987E0,4.261076E0,-5.6733155E0,1.2161245E1,-7.6011815E0,-2.0134332E0,7.000776E-2,-1.4444257E-1,-3.124771E0,4.509144E0,6.5077704E-1,6.545729E0,2.1275566E0,1.5183861E0,-3.08191E0,-5.941132E-1,-4.8528085E0,3.2204342E0,-1.2136627E0,8.822285E-1,-9.331275E-1,9.186612E0,1.4976456E0,-1.3475217E0,4.22152E0,-5.3998218E0,1.0266744E0,3.686938E0,-2.3896277E0,-2.8691828E-1,-3.7252438E0,-2.570009E0,2.969028E0,-6.851361E0,-1.521873E0,-3.7603104E0,2.6724073E-1,4.9934106E0,-2.9801264E0,1.2058537E0,-2.8668623E0,-1.3751404E0,1.3564875E0,3.189698E0,-1.1342017E-2],"categories":[],"categories_nodes":[],"categories_segments":[],"categories_sizes":[],"default_left":[0,0,0,0,0,0,0,0,0,0,0,0,0,0,0,0,0,0,0,0,0,0,0,0,0,0,0,0,0,0,0,0,0,0,0,0,0,0,0,0,0,0,0,0,0,0,0,0,0,0,0,0,0,0,0,0,0,0,0,0,0,0,0,0,0,0,0,0,0,0,0,0,0,0,0,0,0,0,0,0,0,0,0,0,0,0,0,0,0,0,0,0,0,0,0],"id":16,"left_children":[1,3,5,7,9,11,13,15,17,19,21,23,25,27,29,31,33,35,37,-1,-1,39,41,43,45,-1,47,49,51,53,55,57,59,61,63,65,67,-1,69,-1,-1,-1,-1,71,73,75,77,79,81,83,-1,-1,85,87,89,91,93,-1,-1,-1,-1,-1,-1,-1,-1,-1,-1,-1,-1,-1,-1,-1,-1,-1,-1,-1,-1,-1,-1,-1,-1,-1,-1,-1,-1,-1,-1,-1,-1,-1,-1,-1,-1,-1,-1],"loss_changes":[4.1609262E2,1.9383308E3,1.5585552E3,1.352802E3,3.8263135E2,1.8373274E3,1.4211296E3,9.724774E2,2.136505E3,8.5131836E1,1.875458E2,2.7893918E3,2.1770903E3,4.8418542E2,1.1029524E3,6.5605273E2,1.6140498E3,7.512473E2,9.2144257E2,0E0,0E0,7.68515E1,8.013344E-1,2.5327075E3,6.779575E2,0E0,9.399766E2,2.3234912E2,5.9207025E2,2.3864897E3,5.939615E2,3.3602087E2,2.542702E2,5.340857E2,2.8155133E2,1.0656431E3,4.3604227E2,0E0,4.7387947E1,0E0,0E0,0E0,0E0,3.6104673E3,1.9992063E3,1.6668671E3,5.1022778E2,1.5945972E2,7.655465E2,4.6807062E2,0E0,0E0,2.8138617E2,2.1465835E3,2.4288007E2,2.4899595E3,2.2540295E3,0E0,0E0,0E0,0E0,0E0,0E0,0E0,0E0,0E0,0E0,0E0,0E0,0E0,0E0,0E0,0E0,0E0,0E0,0E0,0E0,0E0,0E0,0E0,0E0,0E0,0E0,0E0,0E0,0E0,0E0,0E0,0E0,0E0,0E0,0E0,0E0,0E0,0E0],"parents":[2147483647,0,0,1,1,2,2,3,3,4,4,5,5,6,6,7,7,8,8,9,9,10,10,11,11,12,12,13,13,14,14,15,15,16,16,17,17,18,18,21,21,22,22,23,23,24,24,26,26,27,27,28,28,29,29,30,30,31,31,32,32,33,33,34,34,35,35,36,36,38,38,43,43,44,44,45,45,46,46,47,47,48,48,49,49,52,52,53,53,54,54,55,55,56,56],"right_children":[2,4,6,8,10,12,14,16,18,20,22,24,26,28,30,32,34,36,38,-1,-1,40,42,44,46,-1,48,50,52,54,56,58,60,62,64,66,68,-1,70,-1,-1,-1,-1,72,74,76,78,80,82,84,-1,-1,86,88,90,92,94,-1,-1,-1,-1,-1,-1,-1,-1,-1,-1,-1,-1,-1,-1,-1,-1,-1,-1,-1,-1,-1,-1,-1,-1,-1,-1,-1,-1,-1,-1,-1,-1,-1,-1,-1,-1,-1,-1],"split_conditions":[9.387649E0,7.14374E0,1.6076561E1,2.0380579E1,1.6175749E1,1.5E0,1.7756145E1,1.8E1,2.851282E1,7.9999995E0,2.1E0,1.9148668E1,2E0,3.8999999E0,1.9443531E1,1.5702834E1,5E-1,3E-1,3.2138947E1,-4.7985816E0,-8.2426816E-1,1.7377832E1,2.3450752E1,1.8504139E1,4E-1,-6.5859013E0,6.382E0,2.1479666E1,8.565334E0,2.1602999E1,3.3635063E1,1.23945E1,4E-1,4.9832835E0,1.8080818E1,5.9028325E0,7E-1,5.6239967E0,7.9528337E0,-4.3111268E-1,-2.890949E0,2.1125737E-1,9.145203E-1,9.417418E0,1.343617E1,1.872346E1,2.501117E1,7.1000004E0,1.3493999E1,1.0703569E1,-6.209987E0,4.261076E0,1.6648668E1,1.7796583E1,4.640333E0,2.2104116E1,3.5134262E1,-1.4444257E-1,-3.124771E0,4.509144E0,6.5077704E-1,6.545729E0,2.1275566E0,1.5183861E0,-3.08191E0,-5.941132E-1,-4.8528085E0,3.2204342E0,-1.2136627E0,8.822285E-1,-9.331275E-1,9.186612E0,1.4976456E0,-1.3475217E0,4.22152E0,-5.3998218E0,1.0266744E0,3.686938E0,-2.3896277E0,-2.8691828E-1,-3.7252438E0,-2.570009E0,2.969028E0,-6.851361E0,-1.521873E0,-3.7603104E0,2.6724073E-1,4.9934106E0,-2.9801264E0,1.2058537E0,-2.8668623E0,-1.3751404E0,1.3564875E0,3.189698E0,-1.1342017E-2],"split_indices":[3,3,3,2,0,1,3,2,2,1,1,0,1,1,3,0,1,1,2,0,0,0,0,2,1,0,0,2,0,2,3,0,1,3,2,0,1,0,0,0,0,0,0,0,0,2,0,1,2,2,0,0,0,0,0,2,3,0,0,0,0,0,0,0,0,0,0,0,0,0,0,0,0,0,0,0,0,0,0,0,0,0,0,0,0,0,0,0,0,0,0,0,0,0,0],"split_type":[0,0,0,0,0,0,0,0,0,0,0,0,0,0,0,0,0,0,0,0,0,0,0,0,0,0,0,0,0,0,0,0,0,0,0,0,0,0,0,0,0,0,0,0,0,0,0,0,0,0,0,0,0,0,0,0,0,0,0,0,0,0,0,0,0,0,0,0,0,0,0,0,0,0,0,0,0,0,0,0,0,0,0,0,0,0,0,0,0,0,0,0,0,0,0],"sum_hessian":[2.344E3,9.2E1,2.252E3,7.4E1,1.8E1,8.2E1,2.17E3,3.7E1,3.7E1,1E1,8E0,6.1E1,2.1E1,1.9E1,2.151E3,2.1E1,1.6E1,2.9E1,8E0,9E0,1E0,6E0,2E0,4.4E1,1.7E1,4E0,1.7E1,1.3E1,6E0,2.7E1,2.124E3,1.5E1,6E0,1.2E1,4E0,2.2E1,7E0,4E0,4E0,2E0,4E0,1E0,1E0,2.2E1,2.2E1,1.3E1,4E0,5E0,1.2E1,1.1E1,2E0,1E0,5E0,1.9E1,8E0,1.46E2,1.978E3,1.1E1,4E0,2E0,4E0,6E0,6E0,1E0,3E0,9E0,1.3E1,2E0,5E0,1E0,3E0,1.1E1,1.1E1,1.3E1,9E0,6E0,7E0,3E0,1E0,2E0,3E0,2E0,1E1,1E0,1E1,2E0,3E0,1.6E1,3E0,1E0,7E0,1.05E2,4.1E1,1.9E1,1.959E3],"tree_param":{"num_deleted":"0","num_feature":"4","num_nodes":"95","size_leaf_vector":"1"}},{"base_weights":[2.1379378E-3,6.1616063E-1,-2.3268992E-1,4.626448E-1,9.478021E0,-4.761526E0,-1.288776E-1,1.3561697E-1,2.9963727E0,1.47167845E1,-2.8192832E0,-9.781848E0,6.9309926E0,6.8863735E0,-1.6275124E-1,4.1013873E-1,-2.1884716E1,-6.5184317E0,5.5694847E0,-2.07127E0,1.9809267E1,-1.6659918E1,-2.2050745E0,-1.3154165E1,1.508762E1,1.1697491E1,-1.5093957E0,2.2717202E0,-2.6223385E-1,-6.401547E-1,1.2443653E0,-9.316224E0,-7.244173E0,9.764509E0,-2.0267887E1,9.825343E0,-5.272607E0,-1.1711524E0,2.3908082E-1,7.4028955E0,-1.4089555E0,-8.903816E0,-5.6615934E0,1.6349749E1,-6.660024E0,-1.8793157E0,-7.0468073E0,6.568624E0,1.1040249E0,1.9587809E0,1.607715E1,1.3113837E1,-9.6168137E-1,-1.135086E1,-1.848196E-1,4.799659E-1,-1.215095E0,3.145779E0,1.834365E-1,-4.496394E0,9.992676E-2,4.3723392E0,-9.3307036E-1,1.4677094E0,-7.2073393E0,7.936079E-1,5.277318E0,1.5401765E0,-2.6608598E0,-3.0238497E0,-6.301632E-1,6.236402E0,1.1209855E0,-6.6067874E-1,-4.507495E0,-5.6566086E0,4.810917E0,6.930611E-1,-2.0430755E-2,-4.0917665E-1,1.2906281E0,5.876317E0,8.31815E-1,4.7295573E-3,7.371804E0,-1.6760315E0,1.0069282E0,3.7571518E0,-5.414366E0,-9.6160036E-1,-2.1495618E-2],"categories":[],"categories_nodes":[],"categories_segments":[],"categories_sizes":[],"default_left":[0,0,0,0,0,0,0,0,0,0,0,0,0,0,0,0,0,0,0,0,0,0,0,0,0,0,0,0,0,0,0,0,0,0,0,0,0,0,0,0,0,0,0,0,0,0,0,0,0,0,0,0,0,0,0,0,0,0,0,0,0,0,0,0,0,0,0,0,0,0,0,0,0,0,0,0,0,0,0,0,0,0,0,0,0,0,0,0,0,0,0],"id":17,"left_children":[1,3,5,7,9,11,13,15,17,19,-1,21,23,25,27,29,31,33,35,37,39,41,43,45,47,49,-1,51,53,55,57,-1,59,61,63,65,67,-1,-1,-1,-1,69,-1,71,73,75,-1,-1,77,79,81,83,85,87,89,-1,-1,-1,-1,-1,-1,-1,-1,-1,-1,-1,-1,-1,-1,-1,-1,-1,-1,-1,-1,-1,-1,-1,-1,-1,-1,-1,-1,-1,-1,-1,-1,-1,-1,-1,-1],"loss_changes":[3.3826804E2,8.7853796E2,7.972292E2,5.290687E2,1.2260374E3,2.2984058E3,3.955901E2,3.4365251E3,1.8235383E3,8.104663E2,0E0,1.3703303E3,2.1643906E3,5.175531E2,4.009318E2,4.9233514E2,7.1475E2,3.7800107E3,2.728065E3,1.8879684E1,9.5078906E2,7.216455E1,1.2661409E3,4.2196698E2,8.326035E2,2.2442181E2,0E0,2.291311E3,1.361928E3,1.9085668E3,1.8243511E3,0E0,2.3969977E2,5.4074536E2,9.681846E2,2.2952886E3,6.818712E2,0E0,0E0,0E0,0E0,1.8820007E1,0E0,9.02641E1,4.1437897E2,1.2147854E3,0E0,0E0,5.812511E0,2.9226116E1,1.3251343E2,2.2509438E3,1.0373053E3,1.9848135E3,5.3951086E2,0E0,0E0,0E0,0E0,0E0,0E0,0E0,0E0,0E0,0E0,0E0,0E0,0E0,0E0,0E0,0E0,0E0,0E0,0E0,0E0,0E0,0E0,0E0,0E0,0E0,0E0,0E0,0E0,0E0,0E0,0E0,0E0,0E0,0E0,0E0,0E0],"parents":[2147483647,0,0,1,1,2,2,3,3,4,4,5,5,6,6,7,7,8,8,9,9,11,11,12,12,13,13,14,14,15,15,16,16,17,17,18,18,19,19,20,20,21,21,22,22,23,23,24,24,25,25,27,27,28,28,29,29,30,30,32,32,33,33,34,34,35,35,36,36,41,41,43,43,44,44,45,45,48,48,49,49,50,50,51,51,52,52,53,53,54,54],"right_children":[2,4,6,8,10,12,14,16,18,20,-1,22,24,26,28,30,32,34,36,38,40,42,44,46,48,50,-1,52,54,56,58,-1,60,62,64,66,68,-1,-1,-1,-1,70,-1,72,74,76,-1,-1,78,80,82,84,86,88,90,-1,-1,-1,-1,-1,-1,-1,-1,-1,-1,-1,-1,-1,-1,-1,-1,-1,-1,-1,-1,-1,-1,-1,-1,-1,-1,-1,-1,-1,-1,-1,-1,-1,-1,-1,-1],"split_conditions":[1.4917212E1,1.484318E1,1.5137133E1,3.1499988E2,2.5084084E1,2.0319861E2,1.1934711E0,3.099513E2,4.8069997E0,8.546633E1,-2.8192832E0,1.7877832E1,6.815333E0,1.4919501E1,1.5484185E1,1.3525752E1,3.1163345E2,3.040333E0,1.5E0,1.8461168E1,3.4243958E2,5.863678E1,2.0809084E1,6.382E0,3.2E0,7.8549156E0,-1.5093957E0,1.00445E1,1.5517629E1,1.29249525E1,1.5113251E1,-9.316224E0,9.83268E0,3.364854E2,1.0823973E1,1.2864649E1,3.2088892E2,-1.1711524E0,2.3908082E-1,7.4028955E0,-1.4089555E0,1.6648668E1,-5.6615934E0,1.7973667E1,1.5734592E2,2.542417E0,-7.0468073E0,6.568624E0,1.646325E1,3.2999997E0,9.144501E0,6.7382507E0,5E-1,6.4507504E0,1.57908325E1,4.799659E-1,-1.215095E0,3.145779E0,1.834365E-1,-4.496394E0,9.992676E-2,4.3723392E0,-9.3307036E-1,1.4677094E0,-7.2073393E0,7.936079E-1,5.277318E0,1.5401765E0,-2.6608598E0,-3.0238497E0,-6.301632E-1,6.236402E0,1.1209855E0,-6.6067874E-1,-4.507495E0,-5.6566086E0,4.810917E0,6.930611E-1,-2.0430755E-2,-4.0917665E-1,1.2906281E0,5.876317E0,8.31815E-1,4.7295573E-3,7.371804E0,-1.6760315E0,1.0069282E0,3.7571518E0,-5.414366E0,-9.6160036E-1,-2.1495618E-2],"split_indices":[2,2,2,3,0,3,3,3,0,3,0,0,0,0,2,0,3,0,1,0,3,3,0,0,1,0,0,0,2,2,0,0,2,3,2,2,3,0,0,0,0,0,0,0,3,0,0,0,0,1,0,0,1,0,2,0,0,0,0,0,0,0,0,0,0,0,0,0,0,0,0,0,0,0,0,0,0,0,0,0,0,0,0,0,0,0,0,0,0,0,0],"split_type":[0,0,0,0,0,0,0,0,0,0,0,0,0,0,0,0,0,0,0,0,0,0,0,0,0,0,0,0,0,0,0,0,0,0,0,0,0,0,0,0,0,0,0,0,0,0,0,0,0,0,0,0,0,0,0,0,0,0,0,0,0,0,0,0,0,0,0,0,0,0,0,0,0,0,0,0,0,0,0,0,0,0,0,0,0,0,0,0,0,0,0],"sum_hessian":[2.344E3,6.48E2,1.696E3,6.38E2,1E1,3.7E1,1.659E3,5.66E2,7.2E1,8E0,2E0,2.6E1,1.1E1,7E0,1.652E3,5.6E2,6E0,1.5E1,5.7E1,2E0,6E0,1.3E1,1.3E1,3E0,8E0,5E0,2E0,6.4E1,1.588E3,2.48E2,3.12E2,3E0,3E0,7E0,8E0,4.1E1,1.6E1,1E0,1E0,5E0,1E0,4E0,9E0,2E0,1.1E1,2E0,1E0,5E0,3E0,2E0,3E0,1.4E1,5E1,1E1,1.578E3,1.5E2,9.8E1,1.9E1,2.93E2,1E0,2E0,5E0,2E0,1E0,7E0,2.2E1,1.9E1,4E0,1.2E1,3E0,1E0,1E0,1E0,8E0,3E0,1E0,1E0,1E0,2E0,1E0,1E0,2E0,1E0,7E0,7E0,2.4E1,2.6E1,2E0,8E0,5.6E1,1.522E3],"tree_param":{"num_deleted":"0","num_feature":"4","num_nodes":"91","size_leaf_vector":"1"}},{"base_weights":[-1.4946211E-4,-3.4479172E0,2.9496068E-2,-5.1297054E0,1.331206E0,-2.926979E-1,3.513879E-1,6.544342E-1,-6.069914E0,-1.970877E0,2.6762433E0,-1.6688354E-1,-8.286617E0,9.405034E0,2.6478347E-1,5.8589745E-1,-2.9140207E-1,-1.8548105E0,-9.417887E0,-1.795926E0,5.296135E-1,-2.937494E-1,5.3094044E0,-6.5922723E0,-4.0841436E0,2.358179E1,-6.339228E0,2.1260147E0,-9.504609E-2,7.308815E-1,-2.976036E0,-3.6484606E0,-4.319767E0,-1.16118625E-1,2.8925782E-1,-2.539027E0,-5.4317698E-2,9.845919E-1,1.0272969E1,-6.597112E0,8.166768E0,3.1654083E1,-2.5169506E0,-4.2118998E0,-1.9912078E0,3.3020303E0,-7.3273478E0,-1.621456E1,1.0717878E-1,-3.5156137E-1,-1.3168733E0,-3.9572832E-1,-1.9982678E0,1.0402546E0,-1.924173E0,2.3818502E0,-1.1722721E-1,-1.1106367E0,2.0609136E0,4.321173E0,-4.769669E-1,-2.3393998E0,1.1720295E0,3.62161E0,5.34359E-2,1.3566995E0,1.1191932E1,9.756346E-2,-1.688533E0,